{"learner":{"attributes":{"scikit_learn":"{\"_estimator_type\": \"classifier\"}"},"feature_names":["time","Active_Cells","Current","Status","SoC","Cell1","Cell2","Cell3","Cell4","Pack_V","Min_Cell_V","Max_Cell_V","Cell_Imbalance","T1","T2","Delta_T","Vib_RMS","Vib_Peak","Vib_Freq","CO_PPM","dV1_dt","dV2_dt","dV3_dt","dV4_dt","dT1_dt","dT2_dt","dCO_dt","dI_dt","dImbalance_dt","dSoC_dt","V_rolling_std","T_rolling_mean","Cell1_dev","Cell2_dev","Cell3_dev","Cell4_dev","T1_dev","T2_dev","Vib_Peak_dev","Cell1_std_10","Cell2_std_10","Cell3_std_10","Cell4_std_10","Current_std_10","T1_std_10","T2_std_10","CO_PPM_std_10","Vib_RMS_std_10"],"feature_types":["float","int","float","int","float","float","float","float","float","float","float","float","float","float","float","float","float","float","float","float","float","float","float","float","float","float","float","float","float","float","float","float","float","float","float","float","float","float","float","float","float","float","float","float","float","float","float","float"],"gradient_booster":{"model":{"cats":{"enc":[],"feature_segments":[],"sorted_idx":[]},"gbtree_model_param":{"num_parallel_tree":"1","num_trees":"750"},"iteration_indptr":[0,5,10,15,20,25,30,35,40,45,50,55,60,65,70,75,80,85,90,95,100,105,110,115,120,125,130,135,140,145,150,155,160,165,170,175,180,185,190,195,200,205,210,215,220,225,230,235,240,245,250,255,260,265,270,275,280,285,290,295,300,305,310,315,320,325,330,335,340,345,350,355,360,365,370,375,380,385,390,395,400,405,410,415,420,425,430,435,440,445,450,455,460,465,470,475,480,485,490,495,500,505,510,515,520,525,530,535,540,545,550,555,560,565,570,575,580,585,590,595,600,605,610,615,620,625,630,635,640,645,650,655,660,665,670,675,680,685,690,695,700,705,710,715,720,725,730,735,740,745,750],"tree_info":[0,1,2,3,4,0,1,2,3,4,0,1,2,3,4,0,1,2,3,4,0,1,2,3,4,0,1,2,3,4,0,1,2,3,4,0,1,2,3,4,0,1,2,3,4,0,1,2,3,4,0,1,2,3,4,0,1,2,3,4,0,1,2,3,4,0,1,2,3,4,0,1,2,3,4,0,1,2,3,4,0,1,2,3,4,0,1,2,3,4,0,1,2,3,4,0,1,2,3,4,0,1,2,3,4,0,1,2,3,4,0,1,2,3,4,0,1,2,3,4,0,1,2,3,4,0,1,2,3,4,0,1,2,3,4,0,1,2,3,4,0,1,2,3,4,0,1,2,3,4,0,1,2,3,4,0,1,2,3,4,0,1,2,3,4,0,1,2,3,4,0,1,2,3,4,0,1,2,3,4,0,1,2,3,4,0,1,2,3,4,0,1,2,3,4,0,1,2,3,4,0,1,2,3,4,0,1,2,3,4,0,1,2,3,4,0,1,2,3,4,0,1,2,3,4,0,1,2,3,4,0,1,2,3,4,0,1,2,3,4,0,1,2,3,4,0,1,2,3,4,0,1,2,3,4,0,1,2,3,4,0,1,2,3,4,0,1,2,3,4,0,1,2,3,4,0,1,2,3,4,0,1,2,3,4,0,1,2,3,4,0,1,2,3,4,0,1,2,3,4,0,1,2,3,4,0,1,2,3,4,0,1,2,3,4,0,1,2,3,4,0,1,2,3,4,0,1,2,3,4,0,1,2,3,4,0,1,2,3,4,0,1,2,3,4,0,1,2,3,4,0,1,2,3,4,0,1,2,3,4,0,1,2,3,4,0,1,2,3,4,0,1,2,3,4,0,1,2,3,4,0,1,2,3,4,0,1,2,3,4,0,1,2,3,4,0,1,2,3,4,0,1,2,3,4,0,1,2,3,4,0,1,2,3,4,0,1,2,3,4,0,1,2,3,4,0,1,2,3,4,0,1,2,3,4,0,1,2,3,4,0,1,2,3,4,0,1,2,3,4,0,1,2,3,4,0,1,2,3,4,0,1,2,3,4,0,1,2,3,4,0,1,2,3,4,0,1,2,3,4,0,1,2,3,4,0,1,2,3,4,0,1,2,3,4,0,1,2,3,4,0,1,2,3,4,0,1,2,3,4,0,1,2,3,4,0,1,2,3,4,0,1,2,3,4,0,1,2,3,4,0,1,2,3,4,0,1,2,3,4,0,1,2,3,4,0,1,2,3,4,0,1,2,3,4,0,1,2,3,4,0,1,2,3,4,0,1,2,3,4,0,1,2,3,4,0,1,2,3,4,0,1,2,3,4,0,1,2,3,4,0,1,2,3,4,0,1,2,3,4,0,1,2,3,4,0,1,2,3,4,0,1,2,3,4,0,1,2,3,4,0,1,2,3,4,0,1,2,3,4,0,1,2,3,4,0,1,2,3,4,0,1,2,3,4,0,1,2,3,4,0,1,2,3,4,0,1,2,3,4,0,1,2,3,4,0,1,2,3,4,0,1,2,3,4,0,1,2,3,4,0,1,2,3,4,0,1,2,3,4,0,1,2,3,4,0,1,2,3,4,0,1,2,3,4,0,1,2,3,4,0,1,2,3,4,0,1,2,3,4,0,1,2,3,4,0,1,2,3,4,0,1,2,3,4,0,1,2,3,4,0,1,2,3,4,0,1,2,3,4],"trees":[{"base_weights":[1.0639206E-6,2.8588641E-2,-6.517434E-1,1.1586447E0,1.2041458E-2,-6.810646E-1,-2.8024027E-1,1.382072E0,-1.5387906E-1,-1.4599024E-2,6.512087E-1,1.879203E-2,-6.821679E-1,5.708882E-1,-6.43104E-1,2.0531586E-1,1.5874232E0,-2.824055E-1,1.180931E0,4.5083565E-1,-4.1008316E-2,-2.722144E-1,8.774085E-1,6.42208E-3,-6.827185E-1,9.365727E-1,2.2541462E-1,2.5926024E-1,-6.722579E-1,-3.1330904E-1,3.4023342E-1,9.4454163E-1,1.6376712E0,3.1717727E-1,-4.5120034E-1,-3.8532075E-2,1.5043001E-1,-4.66955E-1,1.0249242E0,-1.6438814E-1,6.02887E-2,6.705718E-1,-6.970245E-2,-5.976935E-1,9.4976205E-1,-6.410772E-1,-6.9440074E-2,3.721894E-1,1.3409511E0,-5.5117153E-2,9.9676543E-1,9.633038E-2,-4.341081E-2,-6.925576E-2,-6.698488E-2,-5.6756705E-2,3.3829108E-2,8.16347E-2,9.120634E-3,-5.724903E-2,1.1811663E-1,1.6798002E-1,1.04373954E-1,-3.5989653E-2,7.241395E-2,-6.011159E-2,-8.32498E-3,-6.978106E-2,-3.289082E-2,1.2132747E-2,1.1691494E-1,5.5193283E-2,-1.797053E-2,-1.8237918E-4,6.286945E-2,-4.4428714E-2,8.371089E-2,6.363649E-2,-6.726792E-2,1.0167308E-1,-4.723629E-2,-6.861271E-2,-5.4836243E-2,7.75088E-2,-1.6867397E-2,1.4744398E-1,3.2558225E-2,-2.7308116E-2,9.526641E-2,1.208837E-1,6.42208E-3,5.137623E-2,-4.6979826E-2],"categories":[],"categories_nodes":[],"categories_segments":[],"categories_sizes":[],"default_left":[0,0,1,0,1,0,0,0,0,0,0,0,0,0,0,0,0,0,0,0,0,0,0,0,0,0,1,0,1,0,0,0,0,0,0,0,0,0,0,0,0,0,0,0,0,0,0,0,0,0,0,0,0,0,0,0,0,0,0,0,0,0,0,0,0,0,0,0,0,0,0,0,0,0,0,0,0,0,0,0,0,0,0,0,0,0,0,0,0,0,0,0,0],"id":0,"left_children":[1,3,5,7,9,11,13,15,17,19,21,-1,23,25,27,29,31,33,35,37,39,41,43,-1,45,47,49,51,53,55,57,59,61,63,65,-1,-1,67,69,71,73,75,-1,77,79,81,-1,83,85,87,89,-1,-1,-1,91,-1,-1,-1,-1,-1,-1,-1,-1,-1,-1,-1,-1,-1,-1,-1,-1,-1,-1,-1,-1,-1,-1,-1,-1,-1,-1,-1,-1,-1,-1,-1,-1,-1,-1,-1,-1,-1,-1],"loss_changes":[8.5177576E2,8.189241E2,2.0734375E1,1.8555469E2,7.3499805E2,1.8345947E0,4.429224E1,1.3020862E2,1.6260408E1,5.093674E2,3.6099658E2,0E0,7.744751E-1,5.22641E0,2.809864E0,5.8028526E0,1.3305542E1,8.795222E0,4.807172E0,1.1728575E3,4.901071E2,1.3687604E2,1.4865723E2,0E0,4.1906738E-1,4.20047E0,5.129022E0,2.3010855E0,1.1494446E0,3.0625653E0,7.6419525E0,1.3489122E1,8.883057E0,5.5971565E0,3.6525288E0,0E0,0E0,2.7079468E1,1.7828955E2,1.9408603E2,7.602916E2,2.0109257E1,0E0,6.4882717E0,1.2648401E2,1.3037567E0,0E0,2.305419E0,1.093874E0,4.245412E0,1.1695056E0,0E0,0E0,0E0,1.2391586E0,0E0,0E0,0E0,0E0,0E0,0E0,0E0,0E0,0E0,0E0,0E0,0E0,0E0,0E0,0E0,0E0,0E0,0E0,0E0,0E0,0E0,0E0,0E0,0E0,0E0,0E0,0E0,0E0,0E0,0E0,0E0,0E0,0E0,0E0,0E0,0E0,0E0,0E0],"parents":[2147483647,0,0,1,1,2,2,3,3,4,4,5,5,6,6,7,7,8,8,9,9,10,10,12,12,13,13,14,14,15,15,16,16,17,17,18,18,19,19,20,20,21,21,22,22,24,24,25,25,26,26,27,27,28,28,29,29,30,30,31,31,32,32,33,33,34,34,37,37,38,38,39,39,40,40,41,41,43,43,44,44,45,45,47,47,48,48,49,49,50,50,54,54],"right_children":[2,4,6,8,10,12,14,16,18,20,22,-1,24,26,28,30,32,34,36,38,40,42,44,-1,46,48,50,52,54,56,58,60,62,64,66,-1,-1,68,70,72,74,76,-1,78,80,82,-1,84,86,88,90,-1,-1,-1,92,-1,-1,-1,-1,-1,-1,-1,-1,-1,-1,-1,-1,-1,-1,-1,-1,-1,-1,-1,-1,-1,-1,-1,-1,-1,-1,-1,-1,-1,-1,-1,-1,-1,-1,-1,-1,-1,-1],"split_conditions":[1.4158224E0,3.8E-2,2.6097995E-1,4.1931432E-1,3.4E-2,3.7077394E-1,2.416E0,1.06E-1,3.4737048E0,-7.2E-2,1.5556349E-2,1.879203E-2,-1.735E-1,4.3460253E-1,-1.08281725E-4,8.020806E-3,1.4142136E-3,5.3571635E-1,6.8E-2,-1.1220318E0,3.9E-2,8.4852815E-2,3.747666E-2,6.42208E-3,2.27E-1,2.4715678E-1,1.20006E2,-2.0002E1,1.0215E2,8.9305547E-7,2.3228457E0,3.1061536E-1,3.312971E-1,6.104953E0,6.120151E-1,-3.8532075E-2,1.5043001E-1,-2.1566525E-1,1.4142136E-3,4.45E-1,3.44E-1,1.21E-1,-6.970245E-2,6.2932506E-2,6.21E-1,2.8284271E-3,-6.9440074E-2,2.504E0,9.6055E1,1.2547713E-5,1.7479215E-6,9.633038E-2,-4.341081E-2,-6.925576E-2,-4.54E0,-5.6756705E-2,3.3829108E-2,8.16347E-2,9.120634E-3,-5.724903E-2,1.1811663E-1,1.6798002E-1,1.04373954E-1,-3.5989653E-2,7.241395E-2,-6.011159E-2,-8.32498E-3,-6.978106E-2,-3.289082E-2,1.2132747E-2,1.1691494E-1,5.5193283E-2,-1.797053E-2,-1.8237918E-4,6.286945E-2,-4.4428714E-2,8.371089E-2,6.363649E-2,-6.726792E-2,1.0167308E-1,-4.723629E-2,-6.861271E-2,-5.4836243E-2,7.75088E-2,-1.6867397E-2,1.4744398E-1,3.2558225E-2,-2.7308116E-2,9.526641E-2,1.208837E-1,6.42208E-3,5.137623E-2,-4.6979826E-2],"split_indices":[38,16,16,47,34,19,38,38,47,38,41,0,32,47,27,43,47,47,38,38,12,40,39,0,17,47,13,2,14,27,43,38,47,46,39,0,0,17,47,19,17,12,0,41,34,47,0,2,14,26,21,0,0,0,2,0,0,0,0,0,0,0,0,0,0,0,0,0,0,0,0,0,0,0,0,0,0,0,0,0,0,0,0,0,0,0,0,0,0,0,0,0,0],"split_type":[0,0,0,0,0,0,0,0,0,0,0,0,0,0,0,0,0,0,0,0,0,0,0,0,0,0,0,0,0,0,0,0,0,0,0,0,0,0,0,0,0,0,0,0,0,0,0,0,0,0,0,0,0,0,0,0,0,0,0,0,0,0,0,0,0,0,0,0,0,0,0,0,0,0,0,0,0,0,0,0,0,0,0,0,0,0,0,0,0,0,0,0,0],"sum_hessian":[4.5714242E4,4.3794246E4,1.9199983E3,6.3101984E2,4.3163227E4,1.7787739E3,1.4122437E2,5.3918317E2,9.183665E1,4.1437105E4,1.7261208E3,2.0408144E0,1.776733E3,4.204078E1,9.9183586E1,8.040809E1,4.587751E2,8.4489716E1,7.346932E0,2.2240796E3,3.9213023E4,3.3959152E2,1.3865293E3,1.2244887E0,1.7755085E3,1.959182E1,2.244896E1,2.8571403E0,9.632644E1,1.6326515E1,6.408157E1,3.4693848E1,4.2408124E2,1.836733E1,6.612239E1,1.2244887E0,6.122443E0,8.559176E2,1.368162E3,1.7679168E4,2.1533857E4,1.0530602E2,2.342855E2,6.448974E1,1.3220396E3,4.0122412E2,1.3742844E3,8.979584E0,1.0612235E1,1.7142841E1,5.3061175E0,1.2244887E0,1.6326516E0,9.306114E1,3.2653031E0,1.1836724E1,4.489792E0,2.122447E1,4.2857105E1,4.489792E0,3.0204054E1,3.9428534E2,2.979589E1,6.9387693E0,1.1428561E1,4.653057E1,1.959182E1,3.187752E2,5.371424E2,1.8857126E2,1.1795907E3,3.6938742E2,1.730978E4,1.9413451E4,2.1204062E3,1.3469376E1,9.183665E1,3.2653031E0,6.1224434E1,1.262856E3,5.918362E1,2.6571405E2,1.3551009E2,4.897955E0,4.081629E0,8.979584E0,1.6326516E0,1.4693864E1,2.4489775E0,4.081629E0,1.2244887E0,1.2244887E0,2.0408144E0],"tree_param":{"num_deleted":"0","num_feature":"48","num_nodes":"93","size_leaf_vector":"1"}},{"base_weights":[-1.1299617E-6,3.3632967E0,-9.262808E-2,3.0887127E0,3.4850404E-1,3.4909827E-1,-1.4553545E-1,3.4134707E-1,-2.3573504E-1,3.218278E0,-2.0159228E-1,5.5186564E-1,-4.3899697E-1,3.4203405E0,-3.120275E-1,3.1917644E0,-2.56706E-1,-4.142015E-2,1.6776837E-1,-5.408621E-2,-8.300476E-2,-1.8134777E-1,3.4469175E0,1.1052614E-1,-4.6877864E-1,3.39612E0,-1.5581287E-1,3.1879482E0,-3.110754E-1,4.628088E-2,-4.254147E-2,-3.6842138E-2,1.2843964E-2,3.4738833E-1,-1.8134778E-2,2.8965412E-2,-5.550052E-2,-3.531162E-2,3.454423E-1,2.0826419E-1,-3.8650356E-2,3.415153E-1,-2.4659798E-2,3.2752475E-1,-3.6500797E-2],"categories":[],"categories_nodes":[],"categories_segments":[],"categories_sizes":[],"default_left":[1,0,1,0,0,0,1,0,0,0,1,0,0,0,1,0,1,0,0,0,0,0,0,0,0,0,0,0,1,0,0,0,0,0,0,0,0,0,0,0,0,0,0,0,0],"id":1,"left_children":[1,3,5,7,-1,-1,9,-1,11,13,15,17,19,21,23,25,27,-1,-1,-1,29,31,33,-1,35,37,39,41,43,-1,-1,-1,-1,-1,-1,-1,-1,-1,-1,-1,-1,-1,-1,-1,-1],"loss_changes":[8.545515E3,1.38125E1,5.061943E3,2.5412402E2,0E0,0E0,4.9614053E3,0E0,3.7348318E0,3.0872217E2,4.8404785E3,6.0442E0,6.041441E-1,3.968213E1,5.908951E0,2.835083E2,4.7701807E3,0E0,0E0,0E0,1.1618599E0,2.755842E-1,4.0262207E1,0E0,1.6355319E0,8.6447266E1,1.3588271E1,3.0968457E2,4.8502764E3,0E0,0E0,0E0,0E0,0E0,0E0,0E0,0E0,0E0,0E0,0E0,0E0,0E0,0E0,0E0,0E0],"parents":[2147483647,0,0,1,1,2,2,3,3,6,6,8,8,9,9,10,10,11,11,12,12,13,13,14,14,15,15,16,16,20,20,21,21,22,22,24,24,25,25,26,26,27,27,28,28],"right_children":[2,4,6,8,-1,-1,10,-1,12,14,16,18,20,22,24,26,28,-1,-1,-1,30,32,34,-1,36,38,40,42,44,-1,-1,-1,-1,-1,-1,-1,-1,-1,-1,-1,-1,-1,-1,-1,-1],"split_conditions":[-3.16544E2,2.78E-1,-1.6084401E2,1.4142136E-3,3.4850404E-1,3.4909827E-1,-1E-5,3.4134707E-1,1.3867E1,1.5556349E-2,-1.0912201E2,3.387E0,2.5002E1,-1.949049E-7,-4.1216E-2,2.1213202E-3,-9.624601E1,-4.142015E-2,1.6776837E-1,-5.408621E-2,-1.6777515E-6,7.170557E5,7.7578E-10,1.1052614E-1,2.3475945E-1,-0E0,1.2642E1,3.5355338E-3,-3.6276012E1,4.628088E-2,-4.254147E-2,-3.6842138E-2,1.2843964E-2,3.4738833E-1,-1.8134778E-2,2.8965412E-2,-5.550052E-2,-3.531162E-2,3.454423E-1,2.0826419E-1,-3.8650356E-2,3.415153E-1,-2.4659798E-2,3.2752475E-1,-3.6500797E-2],"split_indices":[38,17,18,47,0,0,7,0,9,41,19,7,18,22,35,46,2,0,0,0,27,0,22,0,40,26,9,43,14,0,0,0,0,0,0,0,0,0,0,0,0,0,0,0,0],"split_type":[0,0,0,0,0,0,0,0,0,0,0,0,0,0,0,0,0,0,0,0,0,0,0,0,0,0,0,0,0,0,0,0,0,0,0,0,0,0,0,0,0,0,0,0,0],"sum_hessian":[2.7428615E4,7.3420526E2,2.669441E4,2.3363303E2,5.0057224E2,3.874292E2,2.630698E4,2.1281667E2,2.081636E1,4.302864E2,2.5876693E4,3.9183736E0,1.6897985E1,4.0702106E2,2.3265343E1,4.1265372E2,2.5464041E4,2.4489834E0,1.4693902E0,1.27347145E1,4.163272E0,2.9387803E0,4.0408228E2,1.7142885E0,2.1551054E1,3.888986E2,2.375514E1,3.9477615E2,2.5069264E4,1.4693902E0,2.6938818E0,1.7142885E0,1.2244917E0,4.011435E2,2.9387803E0,1.9591868E0,1.9591867E1,5.8775606E0,3.8302103E2,1.4693902E0,2.228575E1,3.7028632E2,2.4489836E1,3.705312E2,2.4698732E4],"tree_param":{"num_deleted":"0","num_feature":"48","num_nodes":"45","size_leaf_vector":"1"}},{"base_weights":[-1.1299617E-6,-5.3090703E-1,4.3791186E-2,-5.4783946E-1,-1.9765441E-1,7.962224E-2,-5.0054145E-1,-5.6285167E-1,-2.754105E-1,1.1988928E0,-2.4729499E-1,1.1164916E-1,-4.2020997E-1,-4.6404007E-1,-5.781323E-1,-5.687065E-1,-3.96547E-1,-3.0811617E-1,9.6551545E-2,1.2843964E-2,1.6776837E-1,-8.482376E-2,-5.659577E-2,-5.114775E-1,1.3523912E-1,-5.273633E-1,-3.42514E-1,-5.502893E-1,-4.0280303E-1,-5.8013463E-1,-7.1368646E-8,-5.8133835E-1,-5.363841E-1,-1.1230038E-1,-5.6932896E-2,-4.4875085E-1,-1.3841064E-1,2.8506637E-1,-2.650341E-1,-5.7153964E-1,-4.2705837E-1,-5.107299E-1,1.5904684E-1,-5.5756706E-1,-2.446233E-2,5.4241348E-2,-3.688258E-1,-2.0371945E-1,-5.699469E-1,4.413602E-1,-4.2439798E-1,-3.6103198E-1,-5.821402E-2,-5.821068E-2,-2.7668038E-2,-5.729716E-2,-4.626188E-2,4.9480077E-2,-4.3899696E-2,-4.8021145E-2,2.2292892E-2,9.2817485E-2,-2.2138162E-2,1.1008878E-1,-6.854441E-3,-3.221359E-2,8.677671E-2,-1.7782984E-2,-5.7778478E-2,2.9590338E-2,-4.597655E-2,-5.5146046E-2,-1.9653128E-2,1.9933587E-2,-2.5099738E-2,-2.8029963E-2,-5.7655662E-2,4.6580236E-2,-2.4000071E-2,9.123572E-2,-1.2174005E-2,-3.2965217E-2,-5.4997798E-2,-4.093166E-2,5.8122575E-2,-5.7932552E-2,-3.8441148E-2,7.962626E-2,-4.70356E-2,-5.78372E-2,-3.8715024E-2,1.2843964E-2,-4.8442937E-2],"categories":[],"categories_nodes":[],"categories_segments":[],"categories_sizes":[],"default_left":[1,1,0,1,0,0,0,1,0,0,0,1,0,0,0,0,0,1,0,0,0,0,0,0,1,0,0,0,0,0,0,0,0,0,0,1,0,0,0,0,0,1,0,0,0,0,0,0,0,0,1,0,0,0,0,0,0,0,0,0,0,0,0,0,0,0,0,0,0,0,0,0,0,0,0,0,0,0,0,0,0,0,0,0,0,0,0,0,0,0,0,0,0],"id":2,"left_children":[1,3,5,7,9,11,13,15,17,19,21,23,25,27,29,31,33,35,-1,-1,-1,37,-1,39,41,43,45,47,49,51,-1,53,55,57,-1,59,61,63,65,67,69,71,73,75,77,79,81,83,85,87,89,91,-1,-1,-1,-1,-1,-1,-1,-1,-1,-1,-1,-1,-1,-1,-1,-1,-1,-1,-1,-1,-1,-1,-1,-1,-1,-1,-1,-1,-1,-1,-1,-1,-1,-1,-1,-1,-1,-1,-1,-1,-1],"loss_changes":[6.377508E2,1.1686401E1,4.9427902E2,7.977783E0,7.411542E0,3.8065875E2,4.164551E0,1.6087646E0,4.592085E0,1.6777191E0,5.126183E0,3.2853436E2,1.1740814E1,5.427017E0,5.749512E-1,4.3023682E-1,3.2446613E0,2.4165964E0,0E0,0E0,0E0,4.5661335E0,0E0,3.8897705E0,3.3120737E2,9.100388E0,8.715157E0,2.8905182E0,1.1656761E1,7.3394775E-3,0E0,1.4202881E-1,1.1481171E0,5.5156794E0,0E0,1.2977467E0,4.498428E0,6.5810604E0,3.2431717E0,1.061264E0,8.243748E0,9.689026E0,3.4311725E2,2.8184052E0,3.8145916E0,8.065431E0,5.362732E0,4.3119965E0,5.0305176E-1,5.6110916E0,3.297371E0,4.9241304E-1,0E0,0E0,0E0,0E0,0E0,0E0,0E0,0E0,0E0,0E0,0E0,0E0,0E0,0E0,0E0,0E0,0E0,0E0,0E0,0E0,0E0,0E0,0E0,0E0,0E0,0E0,0E0,0E0,0E0,0E0,0E0,0E0,0E0,0E0,0E0,0E0,0E0,0E0,0E0,0E0,0E0],"parents":[2147483647,0,0,1,1,2,2,3,3,4,4,5,5,6,6,7,7,8,8,9,9,10,10,11,11,12,12,13,13,14,14,15,15,16,16,17,17,21,21,23,23,24,24,25,25,26,26,27,27,28,28,29,29,31,31,32,32,33,33,35,35,36,36,37,37,38,38,39,39,40,40,41,41,42,42,43,43,44,44,45,45,46,46,47,47,48,48,49,49,50,50,51,51],"right_children":[2,4,6,8,10,12,14,16,18,20,22,24,26,28,30,32,34,36,-1,-1,-1,38,-1,40,42,44,46,48,50,52,-1,54,56,58,-1,60,62,64,66,68,70,72,74,76,78,80,82,84,86,88,90,92,-1,-1,-1,-1,-1,-1,-1,-1,-1,-1,-1,-1,-1,-1,-1,-1,-1,-1,-1,-1,-1,-1,-1,-1,-1,-1,-1,-1,-1,-1,-1,-1,-1,-1,-1,-1,-1,-1,-1,-1,-1],"split_conditions":[-7.2E-2,2.2763875E0,2.2010844E-2,-9.6E-2,4.6056613E4,9.5E-3,6.084817E-1,1.196E0,4.533E0,1.5792E1,1.5E-2,-1.05E-2,1.5556349E-2,8.555992E-2,4E0,5.36E-1,2.04E-1,-2.7354E0,9.6551545E-2,1.2843964E-2,1.6776837E-1,7.3406094E5,-5.659577E-2,9.616652E-2,4.45E-1,5.7017928E-8,2.3E-2,-1.7812262E-7,1.4E-2,8.106691E3,-7.1368646E-8,2.9917688E0,1.8099263E-2,5.68688E-1,-5.6932896E-2,4.301E0,-2.432985E0,9.950717E-1,4.4097233E0,-7.353399E-7,8E-3,3.7077394E-1,1.2E-2,-1.3850828E-7,3.37E0,1.8099263E-2,3.1256E1,-3.5805766E-7,3.1581945E-7,5.8729715E0,-1.8015262E-2,3.04E0,-5.821402E-2,-5.821068E-2,-2.7668038E-2,-5.729716E-2,-4.626188E-2,4.9480077E-2,-4.3899696E-2,-4.8021145E-2,2.2292892E-2,9.2817485E-2,-2.2138162E-2,1.1008878E-1,-6.854441E-3,-3.221359E-2,8.677671E-2,-1.7782984E-2,-5.7778478E-2,2.9590338E-2,-4.597655E-2,-5.5146046E-2,-1.9653128E-2,1.9933587E-2,-2.5099738E-2,-2.8029963E-2,-5.7655662E-2,4.6580236E-2,-2.4000071E-2,9.123572E-2,-1.2174005E-2,-3.2965217E-2,-5.4997798E-2,-4.093166E-2,5.8122575E-2,-5.7932552E-2,-3.8441148E-2,7.962626E-2,-4.70356E-2,-5.78372E-2,-3.8715024E-2,1.2843964E-2,-4.8442937E-2],"split_indices":[38,16,34,38,0,35,19,16,11,9,12,32,42,41,1,16,17,37,0,0,0,0,0,39,19,23,12,22,12,0,0,42,47,47,0,6,37,47,30,20,12,19,33,23,6,47,18,22,22,43,32,7,0,0,0,0,0,0,0,0,0,0,0,0,0,0,0,0,0,0,0,0,0,0,0,0,0,0,0,0,0,0,0,0,0,0,0,0,0,0,0,0,0],"split_type":[0,0,0,0,0,0,0,0,0,0,0,0,0,0,0,0,0,0,0,0,0,0,0,0,0,0,0,0,0,0,0,0,0,0,0,0,0,0,0,0,0,0,0,0,0,0,0,0,0,0,0,0,0,0,0,0,0,0,0,0,0,0,0,0,0,0,0,0,0,0,0,0,0,0,0,0,0,0,0,0,0,0,0,0,0,0,0,0,0,0,0,0,0],"sum_hessian":[2.7428615E4,2.0892278E3,2.5339387E4,1.987595E3,1.0163281E2,2.377522E4,1.5641658E3,1.8827786E3,1.0481649E2,2.6938818E0,9.8938934E1,2.2344281E4,1.430941E3,1.0684915E3,4.9567426E2,1.816411E3,6.6367455E1,1.0285731E2,1.9591868E0,1.2244917E0,1.4693902E0,6.6367455E1,3.257148E1,8.14287E2,2.1529994E4,5.9902136E2,8.319197E2,4.4032724E2,6.2816425E2,4.9395996E2,1.7142885E0,1.293798E3,5.226131E2,2.5714327E1,4.0653126E1,5.5347027E1,4.751028E1,2.1551054E1,4.48164E1,4.724089E2,3.4187808E2,7.6457263E2,2.076542E4,5.6498047E2,3.404087E1,5.1673553E1,7.8024615E2,2.4244936E1,4.160823E2,1.5183698E1,6.129806E2,6.122459E0,4.8783752E2,1.2896348E3,4.163272E0,3.4481686E2,1.777962E2,8.81634E0,1.6897985E1,5.314294E1,2.204085E0,2.6938818E0,4.48164E1,5.8775606E0,1.5673494E1,4.3347008E1,1.4693902E0,7.836747E0,4.6457217E2,1.4449002E1,3.274291E2,6.7616437E2,8.84083E1,1.8908111E4,1.8573091E3,3.722455E1,5.277559E2,1.00408325E1,2.4000038E1,8.081646E0,4.3591908E1,6.4383777E2,1.3640839E2,1.9591867E1,4.6530685E0,3.9404144E2,2.2040852E1,1.1020426E1,4.163272E0,1.1657162E2,4.9640897E2,1.2244917E0,4.897967E0],"tree_param":{"num_deleted":"0","num_feature":"48","num_nodes":"93","size_leaf_vector":"1"}},{"base_weights":[1.0639206E-6,-1.9381264E-2,1.2513119E0,1.0602945E0,-4.064576E-2,8.106613E-1,1.6904355E0,1.7445855E-1,6.546291E-1,-5.547692E-1,-8.284172E-3,1.7312588E-1,1.4547026E-1,1.7207806E-1,9.375831E-1,-1.1034521E-2,1.0565505E0,-6.1000854E-1,6.1336017E-1,1.7398775E-1,-1.5588359E-2,5.4878503E-1,-1.2973692E-1,-2.4221383E-1,1.4952764E-1,8.134574E-1,-2.4958825E-1,3.8927647E-1,1.5346925E0,7.637338E-1,-6.248415E-1,-6.097556E-1,1.2439617E0,1.7397809E-1,-2.2883218E-2,1.5915613E0,-3.963659E-2,-5.2005005E-1,1.24013156E-1,-5.5021793E-2,5.137623E-2,5.6495458E-2,1.587904E-1,-6.701323E-2,-2.0312371E-3,2.7184596E-2,1.6091977E-1,9.458273E-2,1.6380827E-1,1.6290574E-1,-2.0926675E-2,-6.401666E-2,-4.1418068E-2,5.137623E-2,-6.5725975E-2,1.4230004E-1,-1.288335E-2,-5.8084883E-5,-4.79964E-2,5.137623E-2,1.6195908E-1,-3.6453996E-2,5.237628E-2,2.4944438E-2,-6.825796E-2,1.3848259E-1,-1.6720378E-3],"categories":[],"categories_nodes":[],"categories_segments":[],"categories_sizes":[],"default_left":[1,0,0,0,1,0,0,0,0,0,0,0,0,0,0,0,0,0,1,0,0,0,0,0,0,0,0,0,0,0,1,0,0,0,0,0,0,0,0,0,0,0,0,0,0,0,0,0,0,0,0,0,0,0,0,0,0,0,0,0,0,0,0,0,0,0,0],"id":3,"left_children":[1,3,5,7,9,11,13,-1,15,17,19,-1,21,-1,23,25,27,29,31,-1,33,35,37,39,-1,41,43,45,47,49,51,53,55,-1,57,59,61,63,65,-1,-1,-1,-1,-1,-1,-1,-1,-1,-1,-1,-1,-1,-1,-1,-1,-1,-1,-1,-1,-1,-1,-1,-1,-1,-1,-1,-1],"loss_changes":[1.1087706E3,1.0336217E3,1.3356226E2,2.4024481E2,7.345623E2,2.1406604E2,6.3447876E0,0E0,1.465003E2,1.6907721E2,5.3040735E2,0E0,2.2743628E1,0E0,1.0688182E1,4.0940998E1,1.08329315E2,5.135608E1,9.2196655E1,0E0,5.297263E2,5.1016228E1,1.2169838E1,1.6559827E0,0E0,8.093163E0,1.5549444E1,2.0170921E1,1.0539032E1,2.317691E1,7.711548E0,2.5259132E0,1.948986E1,0E0,4.199393E2,7.360077E-2,1.008685E1,6.216794E0,1.3309312E1,0E0,0E0,0E0,0E0,0E0,0E0,0E0,0E0,0E0,0E0,0E0,0E0,0E0,0E0,0E0,0E0,0E0,0E0,0E0,0E0,0E0,0E0,0E0,0E0,0E0,0E0,0E0,0E0],"parents":[2147483647,0,0,1,1,2,2,3,3,4,4,5,5,6,6,8,8,9,9,10,10,12,12,14,14,15,15,16,16,17,17,18,18,20,20,21,21,22,22,23,23,25,25,26,26,27,27,28,28,29,29,30,30,31,31,32,32,34,34,35,35,36,36,37,37,38,38],"right_children":[2,4,6,8,10,12,14,-1,16,18,20,-1,22,-1,24,26,28,30,32,-1,34,36,38,40,-1,42,44,46,48,50,52,54,56,-1,58,60,62,64,66,-1,-1,-1,-1,-1,-1,-1,-1,-1,-1,-1,-1,-1,-1,-1,-1,-1,-1,-1,-1,-1,-1,-1,-1,-1,-1,-1,-1],"split_conditions":[1.4158224E0,-1.1220318E0,4.000787E0,-2.1566525E-1,-7.2E-2,3.8E-2,5.4684E1,1.7445855E-1,4.6458477E-1,4.9213913E-1,-2.2053056E0,1.7312588E-1,2.7972E1,1.7207806E-1,1.4142136E-3,2.6870057E-2,-7.248869E0,-2.1566525E-1,1.14E-1,1.7398775E-1,1.7087961E1,1.5287599E-1,1.4142136E-3,8.8E-2,1.4952764E-1,6.084817E-1,5.46626E-2,3.44E-1,6.1801136E-1,-5.24E-1,-9.6E-2,1.9728E1,1.5344062E0,1.7397809E-1,9.9E-2,-8E-3,3.015709E1,7.919596E-2,1.6008265E-1,-5.5021793E-2,5.137623E-2,5.6495458E-2,1.587904E-1,-6.701323E-2,-2.0312371E-3,2.7184596E-2,1.6091977E-1,9.458273E-2,1.6380827E-1,1.6290574E-1,-2.0926675E-2,-6.401666E-2,-4.1418068E-2,5.137623E-2,-6.5725975E-2,1.4230004E-1,-1.288335E-2,-5.8084883E-5,-4.79964E-2,5.137623E-2,1.6195908E-1,-3.6453996E-2,5.237628E-2,2.4944438E-2,-6.825796E-2,1.3848259E-1,-1.6720378E-3],"split_indices":[38,38,38,17,38,16,18,0,47,47,19,0,18,0,47,44,38,17,17,0,18,47,47,16,0,19,47,17,47,38,38,18,47,0,34,32,44,30,47,0,0,0,0,0,0,0,0,0,0,0,0,0,0,0,0,0,0,0,0,0,0,0,0,0,0,0,0],"split_type":[0,0,0,0,0,0,0,0,0,0,0,0,0,0,0,0,0,0,0,0,0,0,0,0,0,0,0,0,0,0,0,0,0,0,0,0,0,0,0,0,0,0,0,0,0,0,0,0,0,0,0,0,0,0,0,0,0,0,0,0,0,0,0,0,0,0,0],"sum_hessian":[4.5714242E4,4.5017918E4,6.9632587E2,8.685706E2,4.4149348E4,3.4897928E2,3.4734662E2,3.2204053E2,5.465301E2,2.613467E3,4.153588E4,1.4571416E2,2.0326512E2,3.3265277E2,1.4693864E1,2.0612225E2,3.4040784E2,2.495916E3,1.1755091E2,1.7183658E2,4.1364043E4,8.204074E1,1.2122438E2,4.897955E0,9.79591E0,4.5714245E1,1.6040802E2,1.4285701E2,1.9755084E2,2.6122425E1,2.4697937E3,3.999996E1,7.755095E1,1.7020392E2,4.119384E4,2.8979565E1,5.3061176E1,4.7346897E1,7.387749E1,3.673466E0,1.2244887E0,3.5918335E1,9.79591E0,5.5918316E1,1.044897E2,1.3142845E2,1.1428561E1,3.102038E1,1.6653046E2,1.3469376E1,1.2653049E1,2.300406E3,1.693876E2,1.2244887E0,3.8775475E1,6.8571365E1,8.979584E0,3.9278332E4,1.9155084E3,1.2244887E0,2.7755077E1,3.387752E1,1.9183657E1,8.163258E0,3.918364E1,6.5306063E0,6.734688E1],"tree_param":{"num_deleted":"0","num_feature":"48","num_nodes":"67","size_leaf_vector":"1"}},{"base_weights":[-1.1299617E-6,-1.1613915E-2,2.9240115E0,1.841889E0,-2.6148077E-2,3.094672E0,6.0170867E-2,3.2467148E0,-4.6549597E-1,2.5286293E0,-3.622728E-2,-4.142015E-2,3.1848009E0,1.1052614E-1,-4.7547203E-2,-5.134477E-2,3.471975E-1,2.40764E-1,-5.75961E-2,3.3001173E0,-1.200009E-1,-4.8365172E-2,1.5642972E0,-3.2110125E-2,3.231542E-1,-4.4390276E-2,3.455895E-1,-5.5718232E-2,2.5524825E-1,2.9774812E-1,-1.0111928E-1,3.1524448E0,-4.444949E-1,1.7492162E-3,1.412068E-1,1.3340233E-1,-1.4350871E-2,-2.3564424E-2,3.456868E-1,8.677671E-2,-4.7585297E-2],"categories":[],"categories_nodes":[],"categories_segments":[],"categories_sizes":[],"default_left":[0,0,0,0,0,0,0,0,0,0,1,0,0,0,0,0,0,0,0,0,0,0,0,0,0,0,0,0,0,0,0,0,0,0,0,0,0,0,0,0,0],"id":4,"left_children":[1,3,5,7,9,11,13,15,17,19,21,-1,23,-1,-1,-1,-1,-1,-1,25,27,29,31,-1,-1,-1,-1,-1,-1,33,35,37,39,-1,-1,-1,-1,-1,-1,-1,-1],"loss_changes":[9.31432E2,7.360814E2,5.2847595E1,6.906235E2,6.9819025E2,3.369934E1,4.5126395E0,1.1381348E2,2.7198242E1,2.1812128E2,5.247009E2,0E0,1.7414856E1,0E0,0E0,0E0,0E0,0E0,0E0,4.9680725E1,3.063124E1,4.8941742E2,6.499363E2,0E0,0E0,0E0,0E0,0E0,0E0,1.1071132E3,1.4151194E3,1.18037964E2,4.1424675E0,0E0,0E0,0E0,0E0,0E0,0E0,0E0,0E0],"parents":[2147483647,0,0,1,1,2,2,3,3,4,4,5,5,6,6,7,7,8,8,9,9,10,10,12,12,19,19,20,20,21,21,22,22,29,29,30,30,31,31,32,32],"right_children":[2,4,6,8,10,12,14,16,18,20,22,-1,24,-1,-1,-1,-1,-1,-1,26,28,30,32,-1,-1,-1,-1,-1,-1,34,36,38,40,-1,-1,-1,-1,-1,-1,-1,-1],"split_conditions":[4.004E0,-2.8754205E-1,1.5070462E-1,1.8384777E-2,-4.23E-1,0E0,7.000357E-2,7.919596E-2,1.5556349E-2,1.5556349E-2,3.2304502E-1,-4.142015E-2,7.063997E-1,1.1052614E-1,-4.7547203E-2,-5.134477E-2,3.471975E-1,2.40764E-1,-5.75961E-2,7.919596E-2,2.665E-1,3.5355338E-3,1.5556349E-2,-3.2110125E-2,3.231542E-1,-4.4390276E-2,3.455895E-1,-5.5718232E-2,2.5524825E-1,9.1923885E-3,1.4142136E-3,7.919596E-2,3.1961226E-1,1.7492162E-3,1.412068E-1,1.3340233E-1,-1.4350871E-2,-2.3564424E-2,3.456868E-1,8.677671E-2,-4.7585297E-2],"split_indices":[12,32,8,39,34,8,39,30,41,41,35,0,30,0,0,0,0,0,0,30,32,43,42,0,0,0,0,0,0,47,47,30,45,0,0,0,0,0,0,0,0],"split_type":[0,0,0,0,0,0,0,0,0,0,0,0,0,0,0,0,0,0,0,0,0,0,0,0,0,0,0,0,0,0,0,0,0,0,0,0,0,0,0,0,0],"sum_hessian":[2.7428615E4,2.7321105E4,1.07510376E2,2.1159218E2,2.7109512E4,1.0138792E2,6.122459E0,1.3126552E2,8.032666E1,1.05551186E2,2.700396E4,2.4489834E0,9.8938934E1,1.7142885E0,4.40817E0,7.3469505E0,1.23918564E2,2.204085E0,7.8122574E1,8.155115E1,2.4000038E1,2.6801676E4,2.0228604E2,1.2244917E0,9.771444E1,3.1836786E0,7.836747E1,2.1306156E1,2.6938818E0,3.544169E3,2.3257506E4,1.12653244E2,8.96328E1,2.8327393E3,7.114297E2,6.663684E2,2.2591139E4,9.306137E0,1.0334711E2,1.4693902E0,8.816341E1],"tree_param":{"num_deleted":"0","num_feature":"48","num_nodes":"41","size_leaf_vector":"1"}},{"base_weights":[4.5681035E-4,2.6557812E-2,-6.274667E-1,1.0447947E0,1.09244585E-2,-6.574266E-1,-2.578314E-1,1.2361627E0,-1.5015845E-1,-1.2120583E-1,1.2254347E-1,1.8537687E-2,-6.5856105E-1,5.345786E-1,-6.1988115E-1,1.9442448E-1,1.4077826E0,-2.74634E-1,1.0758339E0,3.0872157E-1,-1.5056415E-1,6.689658E-2,6.46262E-1,5.5932547E-3,-6.5912056E-1,-2.7741775E-1,6.540472E-1,2.586458E-1,-6.49783E-1,-3.341143E-1,3.141703E-1,8.635328E-1,1.4490634E0,2.9486206E-1,-4.3993488E-1,-3.7937127E-2,1.3601443E-1,-4.2163998E-1,8.365847E-1,-3.9611024E-1,-1.07222244E-1,2.9410437E-2,5.6618094E-1,9.9238783E-1,-3.3146116E-1,-6.1455864E-1,-6.716208E-2,4.766698E-2,-5.6103278E-2,3.3798537E-1,1.001365E0,9.135898E-2,-4.1971803E-2,-6.707032E-2,-4.9131636E-2,-4.9910635E-2,5.0812967E-2,8.4994316E-2,1.5528261E-2,-5.579814E-2,1.0696284E-1,1.4838134E-1,9.466802E-2,-3.511324E-2,6.681257E-2,-4.9170148E-2,5.2767903E-2,-6.7266494E-2,-3.061285E-2,1.4043842E-1,6.843395E-2,-1.3548543E-2,-6.303933E-2,5.0453704E-2,-1.2151361E-2,5.7979155E-2,2.5654995E-4,-2.6385728E-2,7.4655175E-2,5.2392997E-2,1.2594001E-1,1.0073631E-1,-6.710061E-2,-2.0690247E-2,-6.237894E-2,9.177086E-2,-1.6507072E-2,1.18477814E-1,1.5093505E-2,-4.5576975E-2,5.1895667E-2],"categories":[],"categories_nodes":[],"categories_segments":[],"categories_sizes":[],"default_left":[0,0,1,0,0,0,0,0,0,0,0,0,0,0,0,0,0,0,0,0,0,1,0,0,0,0,0,0,1,1,1,0,0,0,0,0,0,0,0,0,0,0,0,0,0,0,0,0,0,0,0,0,0,0,0,0,0,0,0,0,0,0,0,0,0,0,0,0,0,0,0,0,0,0,0,0,0,0,0,0,0,0,0,0,0,0,0,0,0,0,0],"id":5,"left_children":[1,3,5,7,9,11,13,15,17,19,21,-1,23,25,27,29,31,33,35,37,39,41,43,-1,45,47,49,51,53,55,57,59,61,63,65,-1,-1,67,69,71,73,75,77,79,81,83,-1,-1,-1,85,87,-1,-1,-1,89,-1,-1,-1,-1,-1,-1,-1,-1,-1,-1,-1,-1,-1,-1,-1,-1,-1,-1,-1,-1,-1,-1,-1,-1,-1,-1,-1,-1,-1,-1,-1,-1,-1,-1,-1,-1],"loss_changes":[7.484732E2,6.97941E2,2.0013672E1,1.5179431E2,6.3689594E2,1.7333984E0,4.000592E1,1.01914185E2,1.4397834E1,2.4964948E2,6.821775E2,0E0,7.0983887E-1,4.44071E0,2.6737785E0,5.2950916E0,9.770447E0,8.102217E0,4.1241455E0,4.878179E2,1.9696948E2,3.9605438E2,7.611839E2,0E0,5.241089E-1,1.6219851E0,3.8958378E0,2.0961728E0,1.1297455E0,2.4258769E0,5.6033373E0,1.1454456E1,6.5300903E0,4.9728575E0,3.5673456E0,0E0,0E0,1.5194534E1,6.251367E1,1.6947672E2,1.3763882E2,2.908443E2,2.2144766E2,2.0706909E2,2.6823633E2,1.301712E0,0E0,0E0,0E0,6.481264E0,2.6082592E0,0E0,0E0,0E0,1.205205E0,0E0,0E0,0E0,0E0,0E0,0E0,0E0,0E0,0E0,0E0,0E0,0E0,0E0,0E0,0E0,0E0,0E0,0E0,0E0,0E0,0E0,0E0,0E0,0E0,0E0,0E0,0E0,0E0,0E0,0E0,0E0,0E0,0E0,0E0,0E0,0E0],"parents":[2147483647,0,0,1,1,2,2,3,3,4,4,5,5,6,6,7,7,8,8,9,9,10,10,12,12,13,13,14,14,15,15,16,16,17,17,18,18,19,19,20,20,21,21,22,22,24,24,25,25,26,26,27,27,28,28,29,29,30,30,31,31,32,32,33,33,34,34,37,37,38,38,39,39,40,40,41,41,42,42,43,43,44,44,45,45,49,49,50,50,54,54],"right_children":[2,4,6,8,10,12,14,16,18,20,22,-1,24,26,28,30,32,34,36,38,40,42,44,-1,46,48,50,52,54,56,58,60,62,64,66,-1,-1,68,70,72,74,76,78,80,82,84,-1,-1,-1,86,88,-1,-1,-1,90,-1,-1,-1,-1,-1,-1,-1,-1,-1,-1,-1,-1,-1,-1,-1,-1,-1,-1,-1,-1,-1,-1,-1,-1,-1,-1,-1,-1,-1,-1,-1,-1,-1,-1,-1,-1],"split_conditions":[1.4158224E0,3.8E-2,2.6097995E-1,4.1931432E-1,5.7E-2,3.7077394E-1,2.416E0,1.06E-1,3.4737048E0,-7.2E-2,3.44E-1,1.8537687E-2,-1.735E-1,1.8930164E5,-1.08281725E-4,1.6263455E-2,1.4142136E-3,5.3571635E-1,6.8E-2,-1.1220318E0,1.2642E1,3.4E-2,4.06E-1,5.5932547E-3,2.27E-1,2.9190952E-1,1.2755727E0,-2.0002E1,1.0215E2,1.5E-3,-4E-3,3.1061536E-1,3.312971E-1,6.104953E0,1.14998E2,-3.7937127E-2,1.3601443E-1,-2.1566525E-1,8.2283564E-2,3.164E0,4.45E-1,-9.6E-2,1.5556349E-2,1.51E-1,1.07E-1,-6.1799806E-6,-6.716208E-2,4.766698E-2,-5.6103278E-2,1.7566633E1,9.6584E1,9.135898E-2,-4.1971803E-2,-6.707032E-2,1.6074429E-7,-4.9910635E-2,5.0812967E-2,8.4994316E-2,1.5528261E-2,-5.579814E-2,1.0696284E-1,1.4838134E-1,9.466802E-2,-3.511324E-2,6.681257E-2,-4.9170148E-2,5.2767903E-2,-6.7266494E-2,-3.061285E-2,1.4043842E-1,6.843395E-2,-1.3548543E-2,-6.303933E-2,5.0453704E-2,-1.2151361E-2,5.7979155E-2,2.5654995E-4,-2.6385728E-2,7.4655175E-2,5.2392997E-2,1.2594001E-1,1.0073631E-1,-6.710061E-2,-2.0690247E-2,-6.237894E-2,9.177086E-2,-1.6507072E-2,1.18477814E-1,1.5093505E-2,-4.5576975E-2,5.1895667E-2],"split_indices":[38,16,16,47,12,19,38,38,47,38,17,0,32,0,27,40,47,47,38,38,9,34,12,0,17,47,42,2,14,35,33,38,47,46,14,0,0,17,17,8,19,38,41,12,16,21,0,0,0,45,14,0,0,0,27,0,0,0,0,0,0,0,0,0,0,0,0,0,0,0,0,0,0,0,0,0,0,0,0,0,0,0,0,0,0,0,0,0,0,0,0],"split_type":[0,0,0,0,0,0,0,0,0,0,0,0,0,0,0,0,0,0,0,0,0,0,0,0,0,0,0,0,0,0,0,0,0,0,0,0,0,0,0,0,0,0,0,0,0,0,0,0,0,0,0,0,0,0,0,0,0,0,0,0,0,0,0,0,0,0,0,0,0,0,0,0,0,0,0,0,0,0,0,0,0,0,0,0,0,0,0,0,0,0,0],"sum_hessian":[4.5666016E4,4.384448E4,1.8215332E3,6.6198553E2,4.3182496E4,1.6842423E3,1.3729094E2,5.7057526E2,9.141029E1,1.9774324E4,2.3408172E4,2.0456164E0,1.6821967E3,4.290632E1,9.438461E1,8.100501E1,4.8957022E2,8.368927E1,7.7210197E0,1.2633997E3,1.8510926E4,2.1160883E4,2.2472883E3,1.238945E0,1.6809578E3,5.3335404E0,3.7572777E1,2.8549633E0,9.1529655E1,1.4631911E1,6.63731E1,3.6060814E1,4.535094E2,1.8650524E1,6.503874E1,1.2072929E0,6.5137267E0,5.301186E2,7.3328107E2,2.7759753E3,1.5734949E4,1.9684066E4,1.4768159E3,1.6597145E3,5.875739E2,3.792249E2,1.3017328E3,1.271672E0,4.0618687E0,2.070458E1,1.6868198E1,1.2761328E0,1.5788306E0,8.833635E1,3.1933057E0,1.2575778E1,2.0561333E0,1.4186516E1,5.218659E1,4.349991E0,3.1710823E1,4.223424E2,3.116698E1,6.8517413E0,1.1798783E1,6.2202785E1,2.83596E0,1.6554326E2,3.6457535E2,1.5330496E2,5.7997614E2,1.3148585E3,1.461117E3,3.5841156E2,1.5376538E4,9.1448505E2,1.8769582E4,2.635477E2,1.2132682E3,6.0363434E2,1.0560801E3,1.184721E2,4.691018E2,8.915277E0,3.7030963E2,9.236335E0,1.1468245E1,1.3552222E1,3.3159757E0,1.9763476E0,1.216958E0],"tree_param":{"num_deleted":"0","num_feature":"48","num_nodes":"91","size_leaf_vector":"1"}},{"base_weights":[-2.2478914E-3,2.4426382E0,-8.9544155E-2,2.3043313E0,2.501348E-1,3.1366978E0,-1.4131342E-1,2.501633E-1,-2.422569E-1,-1.2111949E-1,3.535947E0,3.2047865E0,-1.9270572E-1,-3.6645475E-1,1.1194074E-1,1.6281623E0,-2.9266566E-1,2.3851307E-1,3.5627803E-1,3.4311361E0,-1.7346697E-1,-2.4469152E-1,3.1480038E0,5.465892E-2,-4.5334375E-1,1.4262162E-2,2.1450405E-1,1.584492E-1,-4.001624E-1,3.463346E0,-2.0677733E-1,1.3273352E-1,-3.4904066E-1,3.114738E0,-2.9097387E-1,3.3646934E0,-9.492338E-2,-5.50553E-2,2.0746447E-2,1.4604227E-1,-4.922079E-2,-1.4684108E-2,3.4899285E-1,1.92781E-2,-3.9749414E-2,-4.677892E-2,1.0483946E-1,3.4049147E-1,-1.8254152E-2,2.6045236E-1,-3.4505256E-2,6.1386917E-3,3.4195894E-1,1.5824349E-1,-2.6870161E-2],"categories":[],"categories_nodes":[],"categories_segments":[],"categories_sizes":[],"default_left":[1,0,1,0,0,1,1,0,0,0,1,0,0,1,0,0,1,0,0,0,0,1,0,0,0,0,0,0,1,0,0,0,0,0,1,0,1,0,0,0,0,0,0,0,0,0,0,0,0,0,0,0,0,0,0],"id":6,"left_children":[1,3,5,7,-1,9,11,-1,13,15,17,19,21,23,-1,25,27,-1,-1,29,31,33,35,-1,37,-1,-1,-1,39,41,43,-1,45,47,49,51,53,-1,-1,-1,-1,-1,-1,-1,-1,-1,-1,-1,-1,-1,-1,-1,-1,-1,-1],"loss_changes":[5.8606455E3,1.9233398E0,4.4286035E3,1.4872351E2,0E0,5.450967E2,4.488009E3,0E0,4.149196E0,1.448535E1,3.0229492E0,3.0247266E2,4.464282E3,1.9149363E0,0E0,3.0123663E0,9.383944E0,0E0,0E0,4.407617E1,7.246385E0,3.9358972E3,2.7710815E2,0E0,1.3819294E0,0E0,0E0,0E0,7.8793945E0,3.571826E1,3.960103E-1,0E0,4.4461617E0,3.297732E2,3.9100796E3,6.674805E1,7.8999376E0,0E0,0E0,0E0,0E0,0E0,0E0,0E0,0E0,0E0,0E0,0E0,0E0,0E0,0E0,0E0,0E0,0E0,0E0],"parents":[2147483647,0,0,1,1,2,2,3,3,5,5,6,6,8,8,9,9,10,10,11,11,12,12,13,13,15,15,16,16,19,19,20,20,21,21,22,22,24,24,28,28,29,29,30,30,32,32,33,33,34,34,35,35,36,36],"right_children":[2,4,6,8,-1,10,12,-1,14,16,18,20,22,24,-1,26,28,-1,-1,30,32,34,36,-1,38,-1,-1,-1,40,42,44,-1,46,48,50,52,54,-1,-1,-1,-1,-1,-1,-1,-1,-1,-1,-1,-1,-1,-1,-1,-1,-1,-1],"split_conditions":[-3.16544E2,2.78E-1,-3.5262012E1,1.4142136E-3,2.501348E-1,-1.6600999E-1,-1E-5,2.501633E-1,1.19996E2,1.2542E1,-1.6084401E2,1.6263455E-2,8.229E0,1.9638E1,1.1194074E-1,3.794E0,-1.6084401E2,2.3851307E-1,3.5627803E-1,3.5157381E-9,8.078E0,-1E-5,1.5556349E-2,5.465892E-2,1.2549E1,1.4262162E-2,2.1450405E-1,1.584492E-1,-3.6276012E1,-1.6134635E-8,-1.6E-2,1.3273352E-1,2.9723E1,1.8384777E-2,-1.6084401E2,-6.278092E-9,-1.0912201E2,-5.50553E-2,2.0746447E-2,1.4604227E-1,-4.922079E-2,-1.4684108E-2,3.4899285E-1,1.92781E-2,-3.9749414E-2,-4.677892E-2,1.0483946E-1,3.4049147E-1,-1.8254152E-2,2.6045236E-1,-3.4505256E-2,6.1386917E-3,3.4195894E-1,1.5824349E-1,-2.6870161E-2],"split_indices":[38,17,13,47,0,15,6,0,13,9,18,40,8,18,0,8,18,0,0,21,9,5,42,0,37,0,0,0,14,21,2,0,18,39,18,23,19,0,0,0,0,0,0,0,0,0,0,0,0,0,0,0,0,0,0],"split_type":[0,0,0,0,0,0,0,0,0,0,0,0,0,0,0,0,0,0,0,0,0,0,0,0,0,0,0,0,0,0,0,0,0,0,0,0,0,0,0,0,0,0,0,0,0,0,0,0,0,0,0,0,0,0,0],"sum_hessian":[2.7457385E4,9.4565533E2,2.6511729E4,2.9379285E2,6.518625E2,4.1775565E2,2.6093973E4,2.726838E2,2.1109018E1,4.5683292E1,3.7207236E2,3.9378342E2,2.570019E4,2.0014378E1,1.0946409E0,3.3215766E0,4.2361717E1,1.0525945E1,3.6154642E2,3.690413E2,2.4742144E1,2.5307303E4,3.928879E2,1.279415E0,1.8734962E1,1.1867399E0,2.1348367E0,1.5502708E0,4.0811443E1,3.6585007E2,3.1912153E0,1.9042915E0,2.2837852E1,3.4301566E2,2.4964287E4,3.6824457E2,2.4643341E1,1.6477816E1,2.2571466E0,1.2230331E0,3.9588413E1,2.641076E0,3.6320898E2,1.0275787E0,2.1636367E0,2.1662325E1,1.1755273E0,3.1524033E2,2.777531E1,4.5684024E2,2.4507445E4,6.0542464E0,3.6219034E2,1.5524621E0,2.3090878E1],"tree_param":{"num_deleted":"0","num_feature":"48","num_nodes":"55","size_leaf_vector":"1"}},{"base_weights":[3.9405213E-4,-5.221047E-1,4.1094624E-2,-5.3968805E-1,-1.8883735E-1,7.426994E-2,-4.9122164E-1,-5.554101E-1,-2.6044747E-1,1.0996308E0,-2.3816796E-1,1.0417286E-1,-4.1160226E-1,-4.535836E-1,-5.7192874E-1,-5.6157506E-1,-3.8158193E-1,-2.9360157E-1,9.051396E-1,1.0337833E-2,1.5543619E-1,-7.817792E-2,-5.6091327E-2,-5.0414956E-1,1.2606129E-1,-5.202891E-1,-3.3429587E-1,-5.4228824E-1,-3.91769E-1,-5.7402265E-1,3.053101E-4,-5.7503784E-1,-5.2703583E-1,-9.66098E-2,-5.6142777E-2,1.7141592E-2,-3.7185946E-1,-3.0000377E-2,1.6649935E-1,1.4766368E-1,-3.6108443E-1,-5.605513E-1,-4.112276E-1,1.4788598E-1,-4.895134E-1,-5.514372E-1,-2.4184072E-2,4.911916E-2,-3.605403E-1,-1.9502938E-1,-5.628001E-1,3.8833356E-1,-4.1352928E-1,-3.5081962E-1,-5.7611343E-2,-5.7584386E-2,-2.6395962E-2,-5.647101E-2,-4.5313917E-2,3.4594424E-2,-5.3575825E-2,-3.8879823E-2,6.571259E-2,6.7190747E-3,-4.5213066E-2,6.876737E-2,-1.3125412E-2,-5.1533412E-2,2.3398334E-2,-2.5341759E-2,-5.664256E-2,1.0302606E-2,-4.6366822E-2,-4.9780868E-2,1.703792E-2,-5.6017973E-2,-3.4855537E-2,-2.725705E-2,-5.710852E-2,4.2818006E-2,-2.3284199E-2,-1.4757506E-2,7.768552E-2,-3.2207318E-2,-5.431464E-2,-4.001529E-2,5.377363E-2,-5.725654E-2,-3.7541542E-2,1.0220766E-1,-7.069261E-3,-5.7258483E-2,-3.7555125E-2,-4.782252E-2,1.4421885E-2],"categories":[],"categories_nodes":[],"categories_segments":[],"categories_sizes":[],"default_left":[1,1,0,1,0,0,0,1,0,0,0,1,0,0,0,0,0,0,0,0,0,0,0,0,0,0,0,0,0,0,0,0,0,0,0,0,0,0,0,0,0,0,0,1,0,0,0,0,0,0,0,0,1,0,0,0,0,0,0,0,0,0,0,0,0,0,0,0,0,0,0,0,0,0,0,0,0,0,0,0,0,0,0,0,0,0,0,0,0,0,0,0,0,0,0],"id":7,"left_children":[1,3,5,7,9,11,13,15,17,19,21,23,25,27,29,31,33,35,37,-1,-1,39,-1,41,43,45,47,49,51,53,-1,55,57,59,-1,61,63,-1,-1,65,67,69,71,73,75,77,79,81,83,85,87,89,91,93,-1,-1,-1,-1,-1,-1,-1,-1,-1,-1,-1,-1,-1,-1,-1,-1,-1,-1,-1,-1,-1,-1,-1,-1,-1,-1,-1,-1,-1,-1,-1,-1,-1,-1,-1,-1,-1,-1,-1,-1,-1],"loss_changes":[5.828666E2,1.1505005E1,4.490829E2,8.112915E0,6.669132E0,3.478203E2,4.2724304E0,1.6929932E0,4.212801E0,1.6039186E0,5.0118065E0,3.003192E2,1.1488113E1,5.392746E0,5.683899E-1,4.9523926E-1,3.229867E0,2.4398632E0,3.3106408E0,0E0,0E0,4.3099284E0,0E0,3.8752441E0,2.9251154E2,8.873566E0,8.207336E0,2.8619766E0,1.0448181E1,1.6723633E-2,0E0,1.5496826E-1,1.1178741E0,5.2385554E0,0E0,5.7339087E0,2.8491735E0,0E0,0E0,5.7771735E0,2.8618398E0,7.3101807E-1,8.12878E0,3.0541568E2,7.231186E0,2.809021E0,3.4052773E0,7.704028E0,5.17659E0,3.9427164E0,5.049286E-1,5.006507E0,3.3493576E0,5.047243E-1,0E0,0E0,0E0,0E0,0E0,0E0,0E0,0E0,0E0,0E0,0E0,0E0,0E0,0E0,0E0,0E0,0E0,0E0,0E0,0E0,0E0,0E0,0E0,0E0,0E0,0E0,0E0,0E0,0E0,0E0,0E0,0E0,0E0,0E0,0E0,0E0,0E0,0E0,0E0,0E0,0E0],"parents":[2147483647,0,0,1,1,2,2,3,3,4,4,5,5,6,6,7,7,8,8,9,9,10,10,11,11,12,12,13,13,14,14,15,15,16,16,17,17,18,18,21,21,23,23,24,24,25,25,26,26,27,27,28,28,29,29,31,31,32,32,33,33,35,35,36,36,39,39,40,40,41,41,42,42,43,43,44,44,45,45,46,46,47,47,48,48,49,49,50,50,51,51,52,52,53,53],"right_children":[2,4,6,8,10,12,14,16,18,20,22,24,26,28,30,32,34,36,38,-1,-1,40,-1,42,44,46,48,50,52,54,-1,56,58,60,-1,62,64,-1,-1,66,68,70,72,74,76,78,80,82,84,86,88,90,92,94,-1,-1,-1,-1,-1,-1,-1,-1,-1,-1,-1,-1,-1,-1,-1,-1,-1,-1,-1,-1,-1,-1,-1,-1,-1,-1,-1,-1,-1,-1,-1,-1,-1,-1,-1,-1,-1,-1,-1,-1,-1],"split_conditions":[-7.2E-2,2.2763875E0,2.2010844E-2,-9.6E-2,4.6056613E4,9.5E-3,6.084817E-1,1.196E0,4.533E0,2.0047E1,1.5E-2,-1.05E-2,1.5556349E-2,8.555992E-2,4E0,5.36E-1,2.04E-1,-4.133788E-6,-1.5E-3,1.0337833E-2,1.5543619E-1,2.5028E1,-5.6091327E-2,2.963836E-1,1.83E-1,5.7017928E-8,2.3E-2,-1.7812262E-7,1.4E-2,8.106691E3,3.053101E-4,2.9917688E0,1.8099263E-2,1E-2,-5.6142777E-2,-2.3317045E-6,1.3310494E0,-3.0000377E-2,1.6649935E-1,7.3406094E5,7.169348E-7,-7.353399E-7,2E-2,4.45E-1,9.828784E-2,-1.3850828E-7,3.37E0,1.9057391E0,3.1256E1,-3.5805766E-7,3.1581945E-7,2.0105E1,-1.8015262E-2,-1.46213E1,-5.7611343E-2,-5.7584386E-2,-2.6395962E-2,-5.647101E-2,-4.5313917E-2,3.4594424E-2,-5.3575825E-2,-3.8879823E-2,6.571259E-2,6.7190747E-3,-4.5213066E-2,6.876737E-2,-1.3125412E-2,-5.1533412E-2,2.3398334E-2,-2.5341759E-2,-5.664256E-2,1.0302606E-2,-4.6366822E-2,-4.9780868E-2,1.703792E-2,-5.6017973E-2,-3.4855537E-2,-2.725705E-2,-5.710852E-2,4.2818006E-2,-2.3284199E-2,-1.4757506E-2,7.768552E-2,-3.2207318E-2,-5.431464E-2,-4.001529E-2,5.377363E-2,-5.725654E-2,-3.7541542E-2,1.0220766E-1,-7.069261E-3,-5.7258483E-2,-3.7555125E-2,-4.782252E-2,1.4421885E-2],"split_indices":[38,16,34,38,0,35,19,16,11,18,12,32,42,41,1,16,17,26,35,0,0,18,0,39,33,23,12,22,12,0,0,42,47,12,0,25,43,0,0,0,20,20,12,19,40,23,6,42,18,22,22,18,32,37,0,0,0,0,0,0,0,0,0,0,0,0,0,0,0,0,0,0,0,0,0,0,0,0,0,0,0,0,0,0,0,0,0,0,0,0,0,0,0,0,0],"split_type":[0,0,0,0,0,0,0,0,0,0,0,0,0,0,0,0,0,0,0,0,0,0,0,0,0,0,0,0,0,0,0,0,0,0,0,0,0,0,0,0,0,0,0,0,0,0,0,0,0,0,0,0,0,0,0,0,0,0,0,0,0,0,0,0,0,0,0,0,0,0,0,0,0,0,0,0,0,0,0,0,0,0,0,0,0,0,0,0,0,0,0,0,0,0,0],"sum_hessian":[2.7406375E4,1.9797144E3,2.5426662E4,1.8799098E3,9.980462E1,2.3935783E4,1.490879E3,1.778771E3,1.01138794E2,2.8951461E0,9.690948E1,2.2548805E4,1.3869769E3,1.02124023E3,4.6963873E2,1.7156921E3,6.307878E1,9.906897E1,2.0698211E0,1.2919664E0,1.6031797E0,6.562188E1,3.1287594E1,7.823978E2,2.1766408E4,5.741024E2,8.128745E2,4.162065E2,6.0503375E2,4.6793634E2,1.7024043E0,1.2232437E3,4.9244846E2,2.5000994E1,3.8077785E1,2.0087461E1,7.898151E1,1.0344093E0,1.0354118E0,3.675709E1,2.886479E1,4.8374326E2,2.9865457E2,2.1021855E4,7.4455255E2,5.400817E2,3.4020676E1,5.2020172E1,7.608543E2,2.3799425E1,3.9240707E2,1.5961757E1,5.8907196E2,5.909E0,4.6202734E2,1.2192333E3,4.0103946E0,3.2176376E2,1.7068471E2,1.2557923E1,1.244307E1,1.2531355E1,7.5561075E0,1.2233312E1,6.67482E1,1.2019925E1,2.4737165E1,2.3029278E1,5.8355126E0,9.906901E0,4.7383636E2,2.754755E1,2.7110703E2,7.069479E2,2.0314906E4,4.93948E2,2.5060455E2,3.6526676E1,5.0355505E2,1.0406856E1,2.361382E1,4.1579247E1,1.0440924E1,6.307471E2,1.3010722E2,1.894895E1,4.8504763E0,3.710166E2,2.1390478E1,6.1896086E0,9.772148E0,1.1082981E2,4.7824216E2,4.7265215E0,1.182478E0],"tree_param":{"num_deleted":"0","num_feature":"48","num_nodes":"95","size_leaf_vector":"1"}},{"base_weights":[5.5577856E-4,-1.7633913E-2,1.1056437E0,9.3611014E-1,-3.7524793E-2,7.2798586E-1,1.4681863E0,1.4964405E-1,5.872148E-1,-5.312332E-1,-7.6944316E-3,1.5029354E-1,1.2906663E-1,1.4923032E-1,8.464187E-1,-2.085554E-2,9.384738E-1,-5.87303E-1,5.8964765E-1,1.5349855E-1,-1.4616363E-2,4.884497E-1,-1.2572859E-1,-2.3601072E-1,1.3235432E0,7.334995E-1,-2.483123E-1,3.5077703E-1,1.3402328E0,7.2508836E-1,-6.024097E-1,-5.8764166E-1,1.1483932E0,1.5327846E-1,-2.1529313E-2,1.393242E0,-5.3162627E-2,-5.0608045E-1,1.143412E-1,4.9931202E-2,-5.424465E-2,1.3915157E-1,4.4948038E-2,1.5257544E-2,9.825557E-2,-6.5793924E-2,-3.2966973E-3,2.4297042E-2,1.4191936E-1,8.453623E-2,1.4247379E-1,1.4824256E-1,-1.9114286E-2,-6.180464E-2,-3.901987E-2,5.0473392E-2,-6.364205E-2,1.3034572E-1,-1.1527146E-2,-3.221234E-3,8.973055E-2,1.4178112E-1,4.5653336E-2,-3.6353577E-2,4.67809E-2,2.3599435E-2,-6.6907726E-2,1.2323214E-1,-1.7902602E-3],"categories":[],"categories_nodes":[],"categories_segments":[],"categories_sizes":[],"default_left":[1,0,0,0,1,0,0,0,0,0,0,0,0,0,0,0,0,0,1,0,0,0,0,0,0,0,0,0,0,0,1,0,0,0,0,0,0,0,0,0,0,0,0,0,0,0,0,0,0,0,0,0,0,0,0,0,0,0,0,0,0,0,0,0,0,0,0,0,0],"id":8,"left_children":[1,3,5,7,9,11,13,-1,15,17,19,-1,21,-1,23,25,27,29,31,-1,33,35,37,39,41,43,45,47,49,51,53,55,57,-1,59,61,63,65,67,-1,-1,-1,-1,-1,-1,-1,-1,-1,-1,-1,-1,-1,-1,-1,-1,-1,-1,-1,-1,-1,-1,-1,-1,-1,-1,-1,-1,-1,-1],"loss_changes":[9.179859E2,8.523687E2,1.0018463E2,1.7856946E2,6.481793E2,1.6884035E2,4.380005E0,0E0,1.2119522E2,1.579494E2,4.4322708E2,0E0,1.8972515E1,0E0,8.762757E0,3.5992504E1,8.444113E1,4.7795593E1,7.958896E1,0E0,4.420446E2,4.2160168E1,1.1165022E1,1.5900412E0,5.8246613E-2,6.882221E0,1.4189298E1,1.6630247E1,7.7133484E0,1.9460712E1,7.596985E0,2.4138565E0,1.615792E1,0E0,4.038358E2,9.366608E-2,9.012592E0,5.8734016E0,1.1167895E1,0E0,0E0,0E0,0E0,0E0,0E0,0E0,0E0,0E0,0E0,0E0,0E0,0E0,0E0,0E0,0E0,0E0,0E0,0E0,0E0,0E0,0E0,0E0,0E0,0E0,0E0,0E0,0E0,0E0,0E0],"parents":[2147483647,0,0,1,1,2,2,3,3,4,4,5,5,6,6,8,8,9,9,10,10,12,12,14,14,15,15,16,16,17,17,18,18,20,20,21,21,22,22,23,23,24,24,25,25,26,26,27,27,28,28,29,29,30,30,31,31,32,32,34,34,35,35,36,36,37,37,38,38],"right_children":[2,4,6,8,10,12,14,-1,16,18,20,-1,22,-1,24,26,28,30,32,-1,34,36,38,40,42,44,46,48,50,52,54,56,58,-1,60,62,64,66,68,-1,-1,-1,-1,-1,-1,-1,-1,-1,-1,-1,-1,-1,-1,-1,-1,-1,-1,-1,-1,-1,-1,-1,-1,-1,-1,-1,-1,-1,-1],"split_conditions":[1.4158224E0,-1.1220318E0,4.000787E0,-2.1566525E-1,-7.2E-2,3.8E-2,5.4684E1,1.4964405E-1,4.6458477E-1,4.9213913E-1,-2.2053056E0,1.5029354E-1,2.7972E1,1.4923032E-1,1.4142136E-3,2.6870057E-2,-7.248869E0,-2.1566525E-1,1.14E-1,1.5349855E-1,1.7087961E1,1.5287599E-1,1.4142136E-3,1.2950575E0,2.9182388E1,-7.248869E0,5.46626E-2,3.44E-1,6.1801136E-1,-5.24E-1,-9.6E-2,1.9728E1,1.5344062E0,1.5327846E-1,3.4737048E0,4.2687E1,3.015709E1,7.919596E-2,1.6008265E-1,4.9931202E-2,-5.424465E-2,1.3915157E-1,4.4948038E-2,1.5257544E-2,9.825557E-2,-6.5793924E-2,-3.2966973E-3,2.4297042E-2,1.4191936E-1,8.453623E-2,1.4247379E-1,1.4824256E-1,-1.9114286E-2,-6.180464E-2,-3.901987E-2,5.0473392E-2,-6.364205E-2,1.3034572E-1,-1.1527146E-2,-3.221234E-3,8.973055E-2,1.4178112E-1,4.5653336E-2,-3.6353577E-2,4.67809E-2,2.3599435E-2,-6.6907726E-2,1.2323214E-1,-1.7902602E-3],"split_indices":[38,38,38,17,38,16,18,0,47,47,19,0,18,0,47,44,38,17,17,0,18,47,47,30,45,38,47,17,47,38,38,18,47,0,47,36,44,30,47,0,0,0,0,0,0,0,0,0,0,0,0,0,0,0,0,0,0,0,0,0,0,0,0,0,0,0,0,0,0],"split_type":[0,0,0,0,0,0,0,0,0,0,0,0,0,0,0,0,0,0,0,0,0,0,0,0,0,0,0,0,0,0,0,0,0,0,0,0,0,0,0,0,0,0,0,0,0,0,0,0,0,0,0,0,0,0,0,0,0,0,0,0,0,0,0,0,0,0,0,0,0],"sum_hessian":[4.5666215E4,4.492769E4,7.3852344E2,9.169094E2,4.4010785E4,3.6319437E2,3.7532907E2,3.5058176E2,5.663277E2,2.5067031E3,4.1504082E4,1.5767159E2,2.0552278E2,3.5996674E2,1.536234E1,2.0770564E2,3.5862204E2,2.3877373E3,1.18965775E2,1.8440887E2,4.131967E4,8.488182E1,1.2064097E2,4.854505E0,1.0507834E1,4.7603836E1,1.601018E2,1.4637556E2,2.1224648E2,2.6637224E1,2.3611E3,3.8272675E1,8.06931E1,1.8279123E2,4.113688E4,3.1195564E1,5.3686256E1,4.6252808E1,7.438816E1,1.2428197E0,3.6116855E0,9.20035E0,1.3074856E0,1.4768614E1,3.283522E1,5.445775E1,1.0564406E2,1.3407445E2,1.2301124E1,3.2562244E1,1.7968422E2,1.4244809E1,1.2392415E1,2.1972815E3,1.6381857E2,1.2364125E0,3.7036263E1,7.1845474E1,8.84763E0,4.0665043E4,4.7183582E2,2.9897762E1,1.2978028E0,3.3832478E1,1.985378E1,8.24914E0,3.8003666E1,6.9885845E0,6.7399574E1],"tree_param":{"num_deleted":"0","num_feature":"48","num_nodes":"69","size_leaf_vector":"1"}},{"base_weights":[1.7080604E-4,-9.390344E-2,2.7341124E-1,2.6952273E-1,-1.5227625E-1,-4.3008424E-2,1.0359658E0,-7.6373103E-3,1.1703478E0,1.3627664E0,-1.9871432E-1,-7.289846E-2,1.8706675E0,5.4603744E-1,1.9503925E0,-5.1139313E-1,2.5549043E-2,-5.8041435E-1,2.4677105E0,-5.709123E-1,3.0223982E0,1.235593E0,-2.483667E-1,3.1282753E-1,-1.3590653E-1,3.0000374E-1,2.1951804E0,1.7875407E0,3.435686E-1,8.3642286E-1,2.3006706E0,-5.385546E-1,-1.00517645E-1,2.8180903E-1,-3.7988316E-2,-5.874858E-2,3.6093432E-2,-2.1842723E-1,2.6995616E0,1.0160951E-2,-5.749571E-2,3.2672791E0,-9.065207E-2,2.8758192E0,-5.805962E-2,1.12359E0,-2.9781944E-1,6.400451E-2,1.2462788E0,1.0459509E0,-1.841378E-1,-4.1704655E-1,1.4455972E0,7.471126E-2,2.3538053E0,2.18931E0,7.318947E-1,1.3413134E0,1.8857671E-1,2.1443114E0,1.272979E-1,2.5413644E0,-1.3221914E-1,-5.604921E-2,-2.912501E-2,5.3777542E-2,-3.658959E-2,6.42853E-2,2.44077E-3,-1.220494E-2,8.979089E-3,1.5144415E-2,-5.0096024E-2,2.9573986E-1,-9.131204E-5,-2.5197346E-2,3.4961095E-1,8.251434E-2,-4.2567823E-2,-2.9920002E-2,3.1295207E-1,-5.682997E-2,2.4939127E-1,1.1819454E-1,-3.48105E-2,1.2942172E-2,-3.1457193E-2,-5.800257E-2,2.5365305E-1,2.168443E-1,-5.735004E-2,1.0427518E-1,-2.2960946E-2,-5.1374227E-2,1.9756377E-2,1.7673469E-1,1.3503357E-2,9.0391085E-2,-4.3481864E-2,2.4887502E-1,3.5638895E-2,2.399838E-1,5.3296298E-2,1.6090225E-1,4.411825E-2,2.5487983E-1,9.2143096E-2,1.03596985E-1,5.077011E-3,7.4585624E-2,2.2892284E-1,1.9782881E-1,8.2739716E-4,-3.72723E-2,2.5810835E-1,8.622129E-2,-2.4294566E-2],"categories":[],"categories_nodes":[],"categories_segments":[],"categories_sizes":[],"default_left":[0,0,0,0,0,1,0,1,1,1,0,0,0,0,0,1,0,0,0,0,0,0,0,0,0,0,0,0,0,0,0,0,0,0,0,0,0,0,0,0,0,0,0,0,0,1,0,0,1,0,0,0,0,0,0,0,0,0,0,0,0,0,0,0,0,0,0,0,0,0,0,0,0,0,0,0,0,0,0,0,0,0,0,0,0,0,0,0,0,0,0,0,0,0,0,0,0,0,0,0,0,0,0,0,0,0,0,0,0,0,0,0,0,0,0,0,0],"id":9,"left_children":[1,3,5,7,9,11,13,15,17,19,21,23,25,27,29,31,33,35,37,39,41,43,45,47,49,51,53,55,57,59,61,63,65,67,69,-1,-1,71,73,-1,-1,75,77,79,-1,81,83,85,87,89,91,93,95,97,99,101,103,105,107,109,111,113,115,-1,-1,-1,-1,-1,-1,-1,-1,-1,-1,-1,-1,-1,-1,-1,-1,-1,-1,-1,-1,-1,-1,-1,-1,-1,-1,-1,-1,-1,-1,-1,-1,-1,-1,-1,-1,-1,-1,-1,-1,-1,-1,-1,-1,-1,-1,-1,-1,-1,-1,-1,-1,-1,-1],"loss_changes":[7.0459875E2,4.3261432E2,1.6939647E3,7.0464453E2,1.236384E3,2.8399188E2,9.212959E2,3.6110275E1,1.5096956E3,1.6789788E3,1.2144003E3,1.18819466E2,3.826013E1,3.3670972E2,2.7818433E2,1.4357262E0,3.3009697E1,2.0988083E0,2.3823926E2,7.1733856E-1,2.1482153E2,1.7013998E3,1.118336E3,1.5937521E2,2.3969669E2,1.2294392E1,2.1056213E1,7.810278E1,1.7836462E2,1.6045355E2,3.198069E2,5.148697E-1,1.807226E0,3.741639E1,1.7464653E1,0E0,0E0,3.340983E0,2.4463965E2,0E0,0E0,2.1099731E2,6.946257E0,2.4257324E2,0E0,1.3310645E3,1.1839719E3,1.3490599E1,3.4181122E2,3.0099207E2,2.2550006E2,6.6785383E-1,2.1661577E0,2.6855989E0,1.4934296E1,4.601233E1,1.28834095E1,7.630649E1,1.16828766E2,1.0627197E1,2.497464E1,5.8428467E1,5.7222013E0,0E0,0E0,0E0,0E0,0E0,0E0,0E0,0E0,0E0,0E0,0E0,0E0,0E0,0E0,0E0,0E0,0E0,0E0,0E0,0E0,0E0,0E0,0E0,0E0,0E0,0E0,0E0,0E0,0E0,0E0,0E0,0E0,0E0,0E0,0E0,0E0,0E0,0E0,0E0,0E0,0E0,0E0,0E0,0E0,0E0,0E0,0E0,0E0,0E0,0E0,0E0,0E0,0E0,0E0],"parents":[2147483647,0,0,1,1,2,2,3,3,4,4,5,5,6,6,7,7,8,8,9,9,10,10,11,11,12,12,13,13,14,14,15,15,16,16,17,17,18,18,19,19,20,20,21,21,22,22,23,23,24,24,25,25,26,26,27,27,28,28,29,29,30,30,31,31,32,32,33,33,34,34,37,37,38,38,41,41,42,42,43,43,45,45,46,46,47,47,48,48,49,49,50,50,51,51,52,52,53,53,54,54,55,55,56,56,57,57,58,58,59,59,60,60,61,61,62,62],"right_children":[2,4,6,8,10,12,14,16,18,20,22,24,26,28,30,32,34,36,38,40,42,44,46,48,50,52,54,56,58,60,62,64,66,68,70,-1,-1,72,74,-1,-1,76,78,80,-1,82,84,86,88,90,92,94,96,98,100,102,104,106,108,110,112,114,116,-1,-1,-1,-1,-1,-1,-1,-1,-1,-1,-1,-1,-1,-1,-1,-1,-1,-1,-1,-1,-1,-1,-1,-1,-1,-1,-1,-1,-1,-1,-1,-1,-1,-1,-1,-1,-1,-1,-1,-1,-1,-1,-1,-1,-1,-1,-1,-1,-1,-1,-1,-1,-1,-1],"split_conditions":[4.06E-1,3.5355338E-3,3.677E0,1.5556349E-2,3.1961226E-1,3.7128E1,8.2364994E-1,-9.6E-2,-9.624601E1,-3.6276012E1,8.485281E-3,1.0606602E-2,3.2636025E0,3.68E0,3.949E0,2.2763875E0,-2.4403332E-7,8.9305547E-7,-0E0,1.4142136E-3,1.7947114E-8,3.323525E1,2.1213202E-3,9.1923885E-3,8.485281E-3,2.3951653E-1,-5.61E-1,7.82E-1,3.738E0,9.0184E1,4.791E0,1.3918673E-6,-5.6452234E-7,6.244779E-7,4.285928E-8,-5.874858E-2,3.6093432E-2,-2.5419614E0,1.0538707E-9,1.0160951E-2,-5.749571E-2,-0E0,1.4468356E-2,0E0,-5.805962E-2,4.59E-1,1.4142136E-3,6.5E-3,-9.624601E1,1.20057E2,3.1961226E-1,3.311E0,3.132479E1,8.131728E-2,6.0901E1,3.021854E0,1.8384777E-2,1.8384777E-2,1.6263455E-2,-2.4834E-2,5.21E-1,3.9315137E-1,3.387E0,-5.604921E-2,-2.912501E-2,5.3777542E-2,-3.658959E-2,6.42853E-2,2.44077E-3,-1.220494E-2,8.979089E-3,1.5144415E-2,-5.0096024E-2,2.9573986E-1,-9.131204E-5,-2.5197346E-2,3.4961095E-1,8.251434E-2,-4.2567823E-2,-2.9920002E-2,3.1295207E-1,-5.682997E-2,2.4939127E-1,1.1819454E-1,-3.48105E-2,1.2942172E-2,-3.1457193E-2,-5.800257E-2,2.5365305E-1,2.168443E-1,-5.735004E-2,1.0427518E-1,-2.2960946E-2,-5.1374227E-2,1.9756377E-2,1.7673469E-1,1.3503357E-2,9.0391085E-2,-4.3481864E-2,2.4887502E-1,3.5638895E-2,2.399838E-1,5.3296298E-2,1.6090225E-1,4.411825E-2,2.5487983E-1,9.2143096E-2,1.03596985E-1,5.077011E-3,7.4585624E-2,2.2892284E-1,1.9782881E-1,8.2739716E-4,-3.72723E-2,2.5810835E-1,8.622129E-2,-2.4294566E-2],"split_indices":[12,43,11,42,45,18,12,38,2,14,44,43,43,5,11,16,28,27,27,47,25,36,46,47,44,47,32,12,7,4,11,28,22,23,28,0,0,36,27,0,0,25,44,24,0,19,47,32,2,13,45,8,44,47,18,30,39,39,40,29,19,30,10,0,0,0,0,0,0,0,0,0,0,0,0,0,0,0,0,0,0,0,0,0,0,0,0,0,0,0,0,0,0,0,0,0,0,0,0,0,0,0,0,0,0,0,0,0,0,0,0,0,0,0,0,0,0],"split_type":[0,0,0,0,0,0,0,0,0,0,0,0,0,0,0,0,0,0,0,0,0,0,0,0,0,0,0,0,0,0,0,0,0,0,0,0,0,0,0,0,0,0,0,0,0,0,0,0,0,0,0,0,0,0,0,0,0,0,0,0,0,0,0,0,0,0,0,0,0,0,0,0,0,0,0,0,0,0,0,0,0,0,0,0,0,0,0,0,0,0,0,0,0,0,0,0,0,0,0,0,0,0,0,0,0,0,0,0,0,0,0,0,0,0,0,0,0],"sum_hessian":[2.740908E4,2.0389732E4,7.0193467E3,2.821237E3,1.7568496E4,4.961522E3,2.0578247E3,2.1582058E3,6.6303125E2,5.216399E2,1.7046855E4,4.886166E3,7.535598E1,1.3409645E3,7.168602E2,1.324999E2,2.0257059E3,2.8243887E2,3.8059238E2,2.412313E2,2.804086E2,5.6957825E2,1.6477277E4,6.855242E2,4.2006416E3,1.3232804E1,6.2123173E1,1.8692778E2,1.1540367E3,1.722982E2,5.44562E2,1.2399245E2,8.507438E0,4.0178488E2,1.623921E3,2.8070612E2,1.7327639E0,3.0244867E1,3.5034753E2,1.2979594E0,2.3993333E2,2.5991357E2,2.0495045E1,2.9898093E2,2.7059735E2,5.7251074E2,1.5904768E4,5.4209155E2,1.4343265E2,1.6389438E2,4.0367473E3,8.529791E0,4.703014E0,4.4261556E0,5.7697018E1,1.3461906E2,5.2308723E1,1.5413754E2,9.998992E2,5.986364E1,1.1243456E2,4.9549637E2,4.906567E1,1.12726456E2,1.1265989E1,2.1969178E0,6.3105197E0,1.6660246E2,2.351824E2,9.7955426E2,6.4436676E2,1.3298902E1,1.6945965E1,3.197255E2,3.062202E1,1.5862223E1,2.4405133E2,5.0976567E0,1.5397388E1,2.2109232E1,2.7687167E2,2.5645724E2,3.1605353E2,5.219751E2,1.5382792E4,4.6278192E2,7.93096E1,5.960889E1,8.382376E1,9.6599365E1,6.729501E1,1.4348149E2,3.8932659E3,7.5120487E0,1.017742E0,3.4961522E0,1.2068617E0,1.3900326E0,3.036123E0,5.381529E1,3.8817298E0,1.1903979E2,1.55792675E1,1.1892445E1,4.041628E1,3.8461338E1,1.1567621E2,1.3895105E2,8.609481E2,6.1981387E0,5.36655E1,5.849267E0,1.0658529E2,6.550068E0,4.889463E2,4.2359395E0,4.482973E1],"tree_param":{"num_deleted":"0","num_feature":"48","num_nodes":"117","size_leaf_vector":"1"}},{"base_weights":[9.5621526E-4,2.4908401E-2,-6.07115E-1,9.524451E-1,1.0138405E-2,-6.377604E-1,-2.396194E-1,1.1129271E0,-1.9533785E-1,-1.1543545E-1,1.1502441E-1,1.8130794E-2,-6.389302E-1,4.983644E-1,-6.005177E-1,1.0576731E-1,1.2499999E0,-3.3276778E-1,1.0155519E0,2.8303745E-1,-1.4316411E-1,6.284405E-2,5.952315E-1,-5.909049E-1,-6.527146E-2,7.993758E-1,2.0017672E-1,2.557131E-1,-6.311849E-1,1.6738497E-2,6.7979217E-1,7.643618E-1,1.2858906E0,-4.2844933E-1,3.2053426E-1,-3.6762293E-2,1.2719734E-1,-4.0178823E-1,7.430655E-1,-3.7699533E-1,-1.0280173E-1,2.7846415E-2,5.1818186E-1,8.9532894E-1,-3.118159E-1,-2.7960765E-1,-6.070837E-1,3.129665E-1,1.1365002E0,-3.927388E-1,5.1029783E-1,8.667332E-2,-4.0706273E-2,-6.527708E-2,-3.5719566E-2,1.1542409E-2,-5.3255588E-2,-6.9771605E-3,1.06514394E-1,-5.644498E-2,9.7723395E-2,1.3241066E-1,8.215096E-2,-2.5219077E-2,-6.641479E-2,8.821568E-2,-3.7382655E-2,-6.530699E-2,-2.9041572E-2,1.23373054E-1,6.084189E-2,-1.3053015E-2,-6.0964018E-2,-6.50032E-2,-8.7897265E-3,5.2787144E-2,2.794451E-4,6.2978335E-2,-5.9356667E-2,3.5445534E-2,1.0803147E-1,9.162287E-2,-6.50061E-2,-4.138091E-2,9.949218E-2,-6.1228853E-2,-1.7374514E-3,-1.9109776E-2,6.864583E-2,1.2446147E-1,2.8262168E-2,-6.033234E-2,4.6735443E-2,9.2913985E-2,-8.393421E-3,-4.4335328E-2,5.162254E-2],"categories":[],"categories_nodes":[],"categories_segments":[],"categories_sizes":[],"default_left":[0,0,1,0,0,0,0,0,0,0,0,0,0,0,0,0,0,0,0,0,0,1,0,0,0,0,0,0,1,0,0,0,0,0,0,0,0,0,0,0,1,0,0,0,0,0,1,0,0,1,0,0,0,0,0,0,0,0,0,0,0,0,0,0,0,0,0,0,0,0,0,0,0,0,0,0,0,0,0,0,0,0,0,0,0,0,0,0,0,0,0,0,0,0,0,0,0],"id":10,"left_children":[1,3,5,7,9,11,13,15,17,19,21,-1,23,25,27,29,31,33,35,37,39,41,43,45,-1,47,49,51,53,55,57,59,61,63,65,-1,-1,67,69,71,73,75,77,79,81,83,85,87,89,91,93,-1,-1,-1,95,-1,-1,-1,-1,-1,-1,-1,-1,-1,-1,-1,-1,-1,-1,-1,-1,-1,-1,-1,-1,-1,-1,-1,-1,-1,-1,-1,-1,-1,-1,-1,-1,-1,-1,-1,-1,-1,-1,-1,-1,-1,-1],"loss_changes":[6.637955E2,6.007035E2,1.9299194E1,1.2681433E2,5.6850146E2,1.6428833E0,3.6134384E1,8.313196E1,1.4509375E1,2.1709357E2,5.892856E2,0E0,6.679077E-1,3.8553143E0,2.5459824E0,3.7368321E0,8.268555E0,4.965007E0,3.6337032E0,4.030438E2,1.7330844E2,3.380612E2,6.277118E2,1.6711121E0,0E0,3.2400904E0,4.577949E0,1.9126786E0,1.1073036E0,3.558988E0,2.9115562E0,1.1581474E1,7.657593E0,2.6489105E0,4.400376E0,0E0,0E0,1.4204544E1,4.979413E1,1.5492548E2,1.2770651E2,2.4679489E2,1.8823929E2,1.7293542E2,2.389292E2,3.81748E0,1.0531921E0,2.0809507E0,8.0880356E-1,1.8651413E0,4.0766754E0,0E0,0E0,0E0,1.1592013E0,0E0,0E0,0E0,0E0,0E0,0E0,0E0,0E0,0E0,0E0,0E0,0E0,0E0,0E0,0E0,0E0,0E0,0E0,0E0,0E0,0E0,0E0,0E0,0E0,0E0,0E0,0E0,0E0,0E0,0E0,0E0,0E0,0E0,0E0,0E0,0E0,0E0,0E0,0E0,0E0,0E0,0E0],"parents":[2147483647,0,0,1,1,2,2,3,3,4,4,5,5,6,6,7,7,8,8,9,9,10,10,12,12,13,13,14,14,15,15,16,16,17,17,18,18,19,19,20,20,21,21,22,22,23,23,25,25,26,26,27,27,28,28,29,29,30,30,31,31,32,32,33,33,34,34,37,37,38,38,39,39,40,40,41,41,42,42,43,43,44,44,45,45,46,46,47,47,48,48,49,49,50,50,54,54],"right_children":[2,4,6,8,10,12,14,16,18,20,22,-1,24,26,28,30,32,34,36,38,40,42,44,46,-1,48,50,52,54,56,58,60,62,64,66,-1,-1,68,70,72,74,76,78,80,82,84,86,88,90,92,94,-1,-1,-1,96,-1,-1,-1,-1,-1,-1,-1,-1,-1,-1,-1,-1,-1,-1,-1,-1,-1,-1,-1,-1,-1,-1,-1,-1,-1,-1,-1,-1,-1,-1,-1,-1,-1,-1,-1,-1,-1,-1,-1,-1,-1,-1],"split_conditions":[1.4158224E0,3.8E-2,2.6097995E-1,4.5333248E-1,5.7E-2,3.7077394E-1,2.416E0,6.8E-2,3.4737048E0,-7.2E-2,3.44E-1,1.8130794E-2,2.28E-1,4.3460253E-1,-1.08281725E-4,6.7018455E-1,1.4142136E-3,2.7695944E1,6.8E-2,-1.1220318E0,1.2642E1,3.4E-2,4.06E-1,-3.1089814E-6,-6.527146E-2,2.4715678E-1,8E-3,-2.0002E1,1.0215E2,2.0212E1,7.1E-2,3.1061536E-1,3.312971E-1,8.22E-1,6.1801136E-1,-3.6762293E-2,1.2719734E-1,-2.1566525E-1,8.2283564E-2,3.182E0,-2.2053056E0,-9.6E-2,6.21E-1,1.13E-1,1.07E-1,-2.725322E-6,9.9E-2,-2.3630307E-8,9.6055E1,5.08E-1,2E-3,8.667332E-2,-4.0706273E-2,-6.527708E-2,5.0525814E-1,1.1542409E-2,-5.3255588E-2,-6.9771605E-3,1.06514394E-1,-5.644498E-2,9.7723395E-2,1.3241066E-1,8.215096E-2,-2.5219077E-2,-6.641479E-2,8.821568E-2,-3.7382655E-2,-6.530699E-2,-2.9041572E-2,1.23373054E-1,6.084189E-2,-1.3053015E-2,-6.0964018E-2,-6.50032E-2,-8.7897265E-3,5.2787144E-2,2.794451E-4,6.2978335E-2,-5.9356667E-2,3.5445534E-2,1.0803147E-1,9.162287E-2,-6.50061E-2,-4.138091E-2,9.949218E-2,-6.1228853E-2,-1.7374514E-3,-1.9109776E-2,6.864583E-2,1.2446147E-1,2.8262168E-2,-6.033234E-2,4.6735443E-2,9.2913985E-2,-8.393421E-3,-4.4335328E-2,5.162254E-2],"split_indices":[38,16,16,47,12,19,38,38,47,38,17,0,17,47,27,41,47,46,38,38,9,34,12,21,0,47,12,2,14,18,12,38,47,38,47,0,0,17,17,8,19,38,34,12,16,20,34,27,14,19,32,0,0,0,39,0,0,0,0,0,0,0,0,0,0,0,0,0,0,0,0,0,0,0,0,0,0,0,0,0,0,0,0,0,0,0,0,0,0,0,0,0,0,0,0,0,0],"split_type":[0,0,0,0,0,0,0,0,0,0,0,0,0,0,0,0,0,0,0,0,0,0,0,0,0,0,0,0,0,0,0,0,0,0,0,0,0,0,0,0,0,0,0,0,0,0,0,0,0,0,0,0,0,0,0,0,0,0,0,0,0,0,0,0,0,0,0,0,0,0,0,0,0,0,0,0,0,0,0,0,0,0,0,0,0,0,0,0,0,0,0,0,0,0,0,0,0],"sum_hessian":[4.557381E4,4.384759E4,1.7262166E3,6.8628516E2,4.3161305E4,1.5926686E3,1.3354794E2,6.0212665E2,8.415846E1,1.9643361E4,2.3517943E4,2.05189E0,1.5906167E3,4.3735138E1,8.9812805E1,7.234368E1,5.2978296E2,7.623173E1,7.9267325E0,1.277398E3,1.8365963E4,2.1213922E4,2.304021E3,3.6451047E2,1.2261062E3,2.092809E1,2.2807049E1,2.8518064E0,8.6961E1,6.3521004E1,8.822678E0,3.7993145E1,4.9178986E2,6.679345E1,9.43828E0,1.1718632E0,6.754869E0,5.133382E2,7.640598E2,2.702315E3,1.5663648E4,1.9700766E4,1.5131558E3,1.7312487E3,5.7277234E2,1.8911715E1,3.4559875E2,9.356584E0,1.1571506E1,7.7409143E0,1.50661335E1,1.3237214E0,1.528085E0,8.3826035E1,3.1349633E0,5.4516502E1,9.004503E0,3.2737367E0,5.5489407E0,5.017959E0,3.297519E1,4.52685E2,3.910486E1,3.939975E1,2.7393696E1,5.0683603E0,4.3699203E0,1.5615448E2,3.571837E2,1.6276517E2,6.012946E2,1.3129402E3,1.3893748E3,4.1417688E2,1.5249472E4,9.389862E2,1.8761781E4,1.3755105E3,1.3764532E2,4.4195303E2,1.2892955E3,1.23322945E2,4.494494E2,1.7721098E1,1.1906166E0,3.425372E2,3.0615563E0,4.190047E0,5.166537E0,9.864858E0,1.7066479E0,6.458225E0,1.2826899E0,8.506655E0,6.5594788E0,1.9163815E0,1.2185817E0],"tree_param":{"num_deleted":"0","num_feature":"48","num_nodes":"97","size_leaf_vector":"1"}},{"base_weights":[-4.1747936E-3,1.9431579E0,-8.6521275E-2,1.9446303E0,1.6944127E-2,2.3795214E0,-1.3959746E-1,2.0082937E-1,1.8861883E0,2.4955473E0,-2.69918E-1,2.5233896E0,-1.8999708E-1,1.969736E-1,-1.5911518E-1,2.510802E0,-1.8182106E-1,1.3538973E-1,-4.2389092E-1,-2.0919748E-1,2.6910257E-1,2.4780002E0,-2.421749E-1,1.4729953E-1,-3.444521E-1,-1.8058284E-1,2.526168E0,1.2771562E-2,-3.686226E-2,3.4145787E-1,-5.4967698E-2,1.3427468E-1,-3.349923E-1,2.6212137E0,-2.781862E-1,2.3896496E0,-2.9700923E-1,-5.08564E-2,5.9551507E-2,1.3368939E-2,-3.694282E-2,-3.6328457E-2,2.534984E-1,9.35407E-2,-3.5170954E-2,1.0973014E-1,-4.3637823E-2,2.6637748E-1,-5.2476622E-2,1.1047243E-1,-4.6635132E-2,-2.654067E-2,2.631547E-1,2.3848589E-1,-3.533791E-2],"categories":[],"categories_nodes":[],"categories_segments":[],"categories_sizes":[],"default_left":[1,1,1,0,0,0,1,0,1,0,0,1,1,0,0,0,0,0,0,1,0,0,1,0,0,0,0,0,0,0,0,0,1,0,0,1,1,0,0,0,0,0,0,0,0,0,0,0,0,0,0,0,0,0,0],"id":11,"left_children":[1,3,5,7,-1,9,11,-1,13,15,17,19,21,-1,23,25,27,-1,29,31,-1,33,35,-1,37,39,41,-1,-1,43,-1,-1,45,47,49,51,53,-1,-1,-1,-1,-1,-1,-1,-1,-1,-1,-1,-1,-1,-1,-1,-1,-1,-1],"loss_changes":[4.397775E3,2.5766602E0,3.4443076E3,3.4765625E-1,0E0,1.711106E2,3.4576748E3,0E0,1.0216528E2,2.2154785E1,6.615499E0,2.1976709E2,3.520029E3,0E0,7.863078E0,2.2305664E1,2.750316E-1,0E0,2.3858123E0,6.030805E0,0E0,1.9218237E2,3.5793254E3,0E0,3.796509E0,2.827835E-1,1.4304443E1,0E0,0E0,1.9098372E0,0E0,0E0,4.435087E0,6.3146973E1,6.9846087E0,3.258191E2,3.6732427E3,0E0,0E0,0E0,0E0,0E0,0E0,0E0,0E0,0E0,0E0,0E0,0E0,0E0,0E0,0E0,0E0,0E0,0E0],"parents":[2147483647,0,0,1,1,2,2,3,3,5,5,6,6,8,8,9,9,10,10,11,11,12,12,14,14,15,15,16,16,18,18,19,19,21,21,22,22,24,24,25,25,26,26,29,29,32,32,33,33,34,34,35,35,36,36],"right_children":[2,4,6,8,-1,10,12,-1,14,16,18,20,22,-1,24,26,28,-1,30,32,-1,34,36,-1,38,40,42,-1,-1,44,-1,-1,46,48,50,52,54,-1,-1,-1,-1,-1,-1,-1,-1,-1,-1,-1,-1,-1,-1,-1,-1,-1,-1],"split_conditions":[-3.16544E2,1.2014363E2,-1E-5,1.4142136E-3,1.6944127E-2,1.5556349E-2,-3.6276012E1,2.0082937E-1,-1.9975401E2,7.7578E-10,8.334E0,-1.6600999E-1,-9.624601E1,1.969736E-1,1.2213E1,-1.949049E-7,6.203E0,1.3538973E-1,-4.5E-3,-3.5262012E1,2.6910257E-1,3.5355338E-3,-3.5262012E1,1.4729953E-1,1.17732E2,-1E-3,-1.735E-1,1.2771562E-2,-3.686226E-2,4.4409186E-1,-5.4967698E-2,1.3427468E-1,-1.6084401E2,1.0538707E-9,1.2583E1,-1.6600999E-1,-1.0912201E2,-5.08564E-2,5.9551507E-2,1.3368939E-2,-3.694282E-2,-3.6328457E-2,2.534984E-1,9.35407E-2,-3.5170954E-2,1.0973014E-1,-4.3637823E-2,2.6637748E-1,-5.2476622E-2,1.1047243E-1,-4.6635132E-2,-2.654067E-2,2.631547E-1,2.3848589E-1,-3.533791E-2],"split_indices":[38,13,7,47,0,41,14,0,17,22,9,15,2,0,9,22,15,0,35,13,0,43,13,0,13,38,32,0,0,41,0,0,18,27,9,15,19,0,0,0,0,0,0,0,0,0,0,0,0,0,0,0,0,0,0],"split_type":[0,0,0,0,0,0,0,0,0,0,0,0,0,0,0,0,0,0,0,0,0,0,0,0,0,0,0,0,0,0,0,0,0,0,0,0,0,0,0,0,0,0,0,0,0,0,0,0,0,0,0,0,0,0,0],"sum_hessian":[2.7423023E4,1.1116676E3,2.6311355E4,1.1106493E3,1.018305E0,5.534395E2,2.5757916E4,5.156097E2,5.950396E2,5.3027545E2,2.3164097E1,4.775273E2,2.5280389E4,5.717225E2,2.3317146E1,5.273331E2,2.9423232E0,1.3312719E0,2.1832825E1,2.758728E1,4.4994003E2,4.8403122E2,2.4796357E4,1.6693026E0,2.1647844E1,2.9325926E0,5.244005E2,1.2264146E0,1.7159086E0,2.8397417E0,1.8993084E1,1.3431078E0,2.6244173E1,4.6016943E2,2.3861774E1,5.0522134E2,2.4291137E4,1.8820812E1,2.8270307E0,1.2103779E0,1.7222147E0,1.4727947E0,5.2292773E2,1.3411194E0,1.4986224E0,1.0855433E0,2.5158628E1,4.5417825E2,5.991187E0,2.274489E0,2.1587286E1,4.2178104E1,4.6304324E2,4.9921124E2,2.3791926E4],"tree_param":{"num_deleted":"0","num_feature":"48","num_nodes":"55","size_leaf_vector":"1"}},{"base_weights":[9.0013724E-4,-5.140639E-1,3.8876083E-2,-5.3791404E-1,-2.5142857E-1,6.995734E-2,-4.8344058E-1,-5.5520487E-1,-2.5229952E-1,8.176771E-1,-2.820601E-1,9.758145E-2,-4.0081102E-1,-4.4486323E-1,-5.6691396E-1,-5.695182E-1,-5.183444E-1,-2.9209402E-1,6.850586E-1,1.2945384E0,-3.1542044E-2,-1.388143E-1,-5.607021E-2,-4.9482313E-1,1.1759991E-1,-5.100574E-1,-3.2623315E-1,-5.379469E-1,-3.793117E-1,-5.6909186E-1,4.4809195E-4,-5.7036664E-2,-2.4930178E-1,-5.574147E-1,-4.4363746E-1,2.3185663E-2,-3.7382078E-1,1.3109298E-1,-3.442804E-2,1.6702361E-1,1.9596782E-2,1.6631943E-1,-4.1760167E-1,-5.5246305E-1,-4.0358418E-1,-5.365353E-1,1.3619249E-1,-5.4277205E-1,-1.9792724E-2,4.0557936E-2,-3.5226527E-1,-1.8934453E-1,-5.5896425E-1,3.5098326E-1,-4.013462E-1,-3.4115896E-1,-5.7126816E-2,-4.204076E-2,1.6842758E-2,-3.4211047E-2,-5.637011E-2,1.3971095E-2,-5.215588E-2,-3.81109E-2,6.348736E-2,-4.166819E-2,2.862264E-2,7.082899E-2,-4.9522864E-3,-4.9190708E-2,-1.1788162E-2,-2.4210066E-2,-5.586628E-2,2.9057642E-2,-4.408968E-2,-5.4102547E-2,-2.223774E-2,1.7084068E-2,-2.3825193E-2,-2.645651E-2,-5.6342125E-2,-1.7331723E-2,5.6626778E-2,1.1939607E-1,-7.186588E-3,-3.145455E-2,-5.3645767E-2,-3.926974E-2,4.9413923E-2,-5.6902464E-2,-3.675496E-2,9.392309E-3,1.4916895E-1,-3.5996493E-2,-5.6115385E-2,-4.718959E-2,1.5312048E-2],"categories":[],"categories_nodes":[],"categories_segments":[],"categories_sizes":[],"default_left":[1,1,0,1,0,0,0,0,0,0,0,1,0,0,0,0,0,0,0,0,0,0,0,0,1,0,0,0,0,0,0,0,0,0,1,0,0,0,0,0,0,0,0,0,0,0,0,0,0,0,0,0,0,0,0,0,0,0,0,0,0,0,0,0,0,0,0,0,0,0,0,0,0,0,0,0,0,0,0,0,0,0,0,0,0,0,0,0,0,0,0,0,0,0,0,0,0],"id":12,"left_children":[1,3,5,7,9,11,13,15,17,19,21,23,25,27,29,31,33,35,37,39,-1,41,-1,43,45,47,49,51,53,55,-1,-1,57,59,61,63,65,-1,-1,-1,-1,67,69,71,73,75,77,79,81,83,85,87,89,91,93,95,-1,-1,-1,-1,-1,-1,-1,-1,-1,-1,-1,-1,-1,-1,-1,-1,-1,-1,-1,-1,-1,-1,-1,-1,-1,-1,-1,-1,-1,-1,-1,-1,-1,-1,-1,-1,-1,-1,-1,-1,-1],"loss_changes":[5.352984E2,1.1640442E1,4.1388226E2,8.36673E0,5.417408E0,3.1294717E2,4.358734E0,5.613098E-1,3.9362898E0,2.9305835E0,6.0975056E0,2.69597E2,1.0700836E1,5.799774E0,5.612335E-1,1.7269897E-1,1.1105194E0,2.5024624E0,3.2717755E0,1.1095176E0,0E0,8.875025E0,0E0,3.6851501E0,2.674735E2,8.64003E0,7.609703E0,2.8555908E0,9.486099E0,2.6931763E-2,0E0,0E0,4.1672775E-1,2.1529388E-1,7.5567207E0,5.40196E0,2.29531E0,0E0,0E0,0E0,0E0,5.9000335E0,1.1530218E0,7.358246E-1,7.6761665E0,7.371521E-1,2.7741565E2,2.7554169E0,3.227233E0,7.0376644E0,4.9924088E0,3.5986698E0,5.2397156E-1,5.0039315E0,3.529129E0,5.0601596E-1,0E0,0E0,0E0,0E0,0E0,0E0,0E0,0E0,0E0,0E0,0E0,0E0,0E0,0E0,0E0,0E0,0E0,0E0,0E0,0E0,0E0,0E0,0E0,0E0,0E0,0E0,0E0,0E0,0E0,0E0,0E0,0E0,0E0,0E0,0E0,0E0,0E0,0E0,0E0,0E0,0E0],"parents":[2147483647,0,0,1,1,2,2,3,3,4,4,5,5,6,6,7,7,8,8,9,9,10,10,11,11,12,12,13,13,14,14,15,15,16,16,17,17,18,18,19,19,21,21,23,23,24,24,25,25,26,26,27,27,28,28,29,29,32,32,33,33,34,34,35,35,36,36,41,41,42,42,43,43,44,44,45,45,46,46,47,47,48,48,49,49,50,50,51,51,52,52,53,53,54,54,55,55],"right_children":[2,4,6,8,10,12,14,16,18,20,22,24,26,28,30,32,34,36,38,40,-1,42,-1,44,46,48,50,52,54,56,-1,-1,58,60,62,64,66,-1,-1,-1,-1,68,70,72,74,76,78,80,82,84,86,88,90,92,94,96,-1,-1,-1,-1,-1,-1,-1,-1,-1,-1,-1,-1,-1,-1,-1,-1,-1,-1,-1,-1,-1,-1,-1,-1,-1,-1,-1,-1,-1,-1,-1,-1,-1,-1,-1,-1,-1,-1,-1,-1,-1],"split_conditions":[-7.2E-2,1.196E0,2.2010844E-2,-9.6E-2,4.6056613E4,9.5E-3,6.084817E-1,5.36E-1,4.488E0,2E-3,1.5E-2,-1.05E-2,1.5556349E-2,8.555992E-2,4E0,2.9917688E0,1.8099263E-2,-4.133788E-6,9.0182E1,6.224531E-1,-3.1542044E-2,2.09E-1,-5.607021E-2,2.963836E-1,3.7077394E-1,5.7017928E-8,2.3E-2,-1.7812262E-7,1.4E-2,8.106691E3,4.4809195E-4,-5.7036664E-2,-7.1499096E-7,5.84E-1,-2.1918009E1,-2.3317045E-6,2.967E0,1.3109298E-1,-3.442804E-2,1.6702361E-1,1.9596782E-2,-2E-3,7.696144E-7,-7.353399E-7,1E-2,1.7823292E-4,1.2E-2,-1.3850828E-7,4.5706292E-6,1.335764E5,3.1256E1,-3.5805766E-7,3.1581945E-7,8.228914E-7,3.44E-1,5.0142E1,-5.7126816E-2,-4.204076E-2,1.6842758E-2,-3.4211047E-2,-5.637011E-2,1.3971095E-2,-5.215588E-2,-3.81109E-2,6.348736E-2,-4.166819E-2,2.862264E-2,7.082899E-2,-4.9522864E-3,-4.9190708E-2,-1.1788162E-2,-2.4210066E-2,-5.586628E-2,2.9057642E-2,-4.408968E-2,-5.4102547E-2,-2.223774E-2,1.7084068E-2,-2.3825193E-2,-2.645651E-2,-5.6342125E-2,-1.7331723E-2,5.6626778E-2,1.1939607E-1,-7.186588E-3,-3.145455E-2,-5.3645767E-2,-3.926974E-2,4.9413923E-2,-5.6902464E-2,-3.675496E-2,9.392309E-3,1.4916895E-1,-3.5996493E-2,-5.6115385E-2,-4.718959E-2,1.5312048E-2],"split_indices":[38,16,34,38,0,35,19,16,11,32,12,32,42,41,1,42,47,26,14,40,0,17,0,39,19,23,12,22,12,0,0,0,20,16,16,25,12,0,0,0,0,33,22,20,12,26,33,23,23,0,18,22,22,28,17,13,0,0,0,0,0,0,0,0,0,0,0,0,0,0,0,0,0,0,0,0,0,0,0,0,0,0,0,0,0,0,0,0,0,0,0,0,0,0,0,0,0],"split_type":[0,0,0,0,0,0,0,0,0,0,0,0,0,0,0,0,0,0,0,0,0,0,0,0,0,0,0,0,0,0,0,0,0,0,0,0,0,0,0,0,0,0,0,0,0,0,0,0,0,0,0,0,0,0,0,0,0,0,0,0,0,0,0,0,0,0,0,0,0,0,0,0,0,0,0,0,0,0,0,0,0,0,0,0,0,0,0,0,0,0,0,0,0,0,0,0,0],"sum_hessian":[2.737022E4,1.8789271E3,2.5491295E4,1.7215441E3,1.57383E2,2.4060408E4,1.4308855E3,1.6223827E3,9.916136E1,3.6679955E0,1.5371501E2,2.2727574E4,1.3328339E3,9.829452E2,4.479403E2,1.1581926E3,4.6419006E2,9.578337E1,3.37799E0,2.4812782E0,1.1867173E0,1.0251283E2,5.120217E1,7.421279E2,2.1985447E4,5.383643E2,7.9446954E2,4.031964E2,5.797488E2,4.4624344E2,1.696886E0,1.154353E3,3.8396645E0,3.00548E2,1.6364206E2,1.9865181E1,7.591819E1,1.9305743E0,1.4474157E0,1.4611951E0,1.0200831E0,4.913635E1,5.3376488E1,4.5170792E2,2.9042004E2,6.068547E2,2.1378592E4,5.0458688E2,3.377745E1,5.2611958E1,7.418576E2,2.3495731E1,3.7970068E2,1.6542656E1,5.632061E2,5.7123957E0,4.4053104E2,2.7193727E0,1.1202917E0,1.0098641E1,2.9044937E2,1.9189466E1,1.4445259E2,1.2187089E1,7.678092E0,7.163516E1,4.2830286E0,1.3345322E1,3.5791027E1,4.2258667E1,1.111782E1,9.63091E0,4.42077E2,1.4468152E1,2.759519E2,5.9759143E2,9.263231E0,1.9568426E4,1.8101663E3,3.5818336E1,4.6876855E2,2.7323936E1,6.453515E0,3.818296E0,4.8793663E1,6.1800696E2,1.238506E2,1.8436018E1,5.059713E0,3.5886667E2,2.0834007E1,1.4383619E1,2.1590364E0,4.4994724E2,1.1325888E2,4.5533257E0,1.1590698E0],"tree_param":{"num_deleted":"0","num_feature":"48","num_nodes":"97","size_leaf_vector":"1"}},{"base_weights":[1.323353E-3,-1.5729964E-2,9.9284065E-1,8.488534E-1,-3.445338E-2,6.6025674E-1,1.3040531E0,1.3346784E-1,5.375889E-1,-5.121254E-1,-6.6683195E-3,1.3339053E-1,1.14192426E-1,1.3239639E-1,7.755816E-1,-2.673844E-2,8.533021E-1,-5.6871355E-1,5.5890423E-1,1.43055525E-2,-4.5523632E-1,4.3636343E-1,-1.216945E-1,-2.2608279E-1,1.1915402E0,6.683171E-1,-2.4421096E-1,3.228583E-1,1.2049913E0,6.897289E-1,-5.840581E-1,-5.689469E-1,1.0527985E0,3.347019E-2,-4.9136665E-1,-6.335784E-1,-2.6873755E-1,1.2428588E0,-6.6231966E-2,-4.9124625E-1,1.0402257E-1,4.9334023E-2,-5.328328E-2,1.2543444E-1,4.0274154E-2,4.5443878E-2,1.3192162E-1,-6.44251E-2,-4.2178268E-3,2.2357343E-2,1.2715237E-1,7.681372E-2,1.278638E-1,1.3638742E-1,-1.7577527E-2,1.14330165E-1,-5.8575846E-2,4.8968468E-2,-6.189384E-2,1.1887129E-1,-1.1001573E-2,-5.519355E-2,5.0801164E-3,-6.6039525E-2,-2.3731118E-2,-6.630059E-2,-2.7354832E-3,-3.7023526E-2,1.0955478E-1,7.653486E-2,1.3176404E-1,-3.626496E-2,4.175545E-2,2.2828098E-2,-6.556104E-2,8.809846E-2,-6.0704886E-3],"categories":[],"categories_nodes":[],"categories_segments":[],"categories_sizes":[],"default_left":[1,0,0,0,1,0,0,0,0,0,0,0,0,0,0,0,0,0,1,0,0,0,0,0,0,0,0,0,0,0,0,0,0,1,0,0,1,0,0,0,0,0,0,0,0,0,0,0,0,0,0,0,0,0,0,0,0,0,0,0,0,0,0,0,0,0,0,0,0,0,0,0,0,0,0,0,0],"id":13,"left_children":[1,3,5,7,9,11,13,-1,15,17,19,-1,21,-1,23,25,27,29,31,33,35,37,39,41,43,45,47,49,51,53,55,57,59,61,63,65,67,69,71,73,75,-1,-1,-1,-1,-1,-1,-1,-1,-1,-1,-1,-1,-1,-1,-1,-1,-1,-1,-1,-1,-1,-1,-1,-1,-1,-1,-1,-1,-1,-1,-1,-1,-1,-1,-1,-1],"loss_changes":[7.707048E2,7.2540936E2,7.890906E1,1.4292218E2,5.8212616E2,1.37639E2,3.1516724E0,0E0,1.0346933E2,1.4644476E2,3.8998575E2,0E0,1.5858322E1,0E0,7.2827816E0,3.1794943E1,6.9074066E1,4.4633606E1,6.827879E1,3.837846E2,6.1414886E1,3.580393E1,1.0131464E1,1.5383257E0,9.193611E-2,6.3806E0,1.2914439E1,1.382663E1,6.209656E0,1.6606909E1,7.318054E0,2.295679E0,1.3540413E1,3.8713815E2,6.1942078E1,1.6853851E1,1.25976875E2,2.0154953E-1,8.073325E0,5.589615E0,9.761162E0,0E0,0E0,0E0,0E0,0E0,0E0,0E0,0E0,0E0,0E0,0E0,0E0,0E0,0E0,0E0,0E0,0E0,0E0,0E0,0E0,0E0,0E0,0E0,0E0,0E0,0E0,0E0,0E0,0E0,0E0,0E0,0E0,0E0,0E0,0E0,0E0],"parents":[2147483647,0,0,1,1,2,2,3,3,4,4,5,5,6,6,8,8,9,9,10,10,12,12,14,14,15,15,16,16,17,17,18,18,19,19,20,20,21,21,22,22,23,23,24,24,25,25,26,26,27,27,28,28,29,29,30,30,31,31,32,32,33,33,34,34,35,35,36,36,37,37,38,38,39,39,40,40],"right_children":[2,4,6,8,10,12,14,-1,16,18,20,-1,22,-1,24,26,28,30,32,34,36,38,40,42,44,46,48,50,52,54,56,58,60,62,64,66,68,70,72,74,76,-1,-1,-1,-1,-1,-1,-1,-1,-1,-1,-1,-1,-1,-1,-1,-1,-1,-1,-1,-1,-1,-1,-1,-1,-1,-1,-1,-1,-1,-1,-1,-1,-1,-1,-1,-1],"split_conditions":[1.4158224E0,-1.1220318E0,4.000787E0,-2.1566525E-1,-7.2E-2,3.8E-2,5.4684E1,1.3346784E-1,4.6458477E-1,4.9213913E-1,9.9E-2,1.3339053E-1,2.7972E1,1.3239639E-1,1.4142136E-3,2.6870057E-2,-7.248869E0,-2.1566525E-1,1.14E-1,1.18E-1,3.252691E-2,1.5287599E-1,1.4142136E-3,1.6612808E1,1.149153E0,6.084817E-1,5.46626E-2,3.44E-1,6.1801136E-1,-5.24E-1,1.7087961E1,1.9728E1,1.5344062E0,-1.0537774E-1,1.5556349E-2,1.3134024E-8,6.21E-1,1.4142136E-3,3.015709E1,7.919596E-2,2.3490809E-1,4.9334023E-2,-5.328328E-2,1.2543444E-1,4.0274154E-2,4.5443878E-2,1.3192162E-1,-6.44251E-2,-4.2178268E-3,2.2357343E-2,1.2715237E-1,7.681372E-2,1.278638E-1,1.3638742E-1,-1.7577527E-2,1.14330165E-1,-5.8575846E-2,4.8968468E-2,-6.189384E-2,1.1887129E-1,-1.1001573E-2,-5.519355E-2,5.0801164E-3,-6.6039525E-2,-2.3731118E-2,-6.630059E-2,-2.7354832E-3,-3.7023526E-2,1.0955478E-1,7.653486E-2,1.3176404E-1,-3.626496E-2,4.175545E-2,2.2828098E-2,-6.556104E-2,8.809846E-2,-6.0704886E-3],"split_indices":[38,38,38,17,38,16,18,0,47,47,34,0,18,0,47,44,38,17,17,35,41,47,47,44,47,19,47,17,47,38,18,18,47,32,42,22,34,47,44,30,47,0,0,0,0,0,0,0,0,0,0,0,0,0,0,0,0,0,0,0,0,0,0,0,0,0,0,0,0,0,0,0,0,0,0,0,0],"split_type":[0,0,0,0,0,0,0,0,0,0,0,0,0,0,0,0,0,0,0,0,0,0,0,0,0,0,0,0,0,0,0,0,0,0,0,0,0,0,0,0,0,0,0,0,0,0,0,0,0,0,0,0,0,0,0,0,0,0,0,0,0,0,0,0,0,0,0,0,0,0,0,0,0,0,0,0,0],"sum_hessian":[4.557856E4,4.4808863E4,7.6969305E2,9.488719E2,4.3859992E4,3.7358005E2,3.9611298E2,3.6925186E2,5.7962E2,2.410033E3,4.144996E4,1.666055E2,2.0697453E2,3.802802E2,1.58327875E1,2.0826619E2,3.7135382E2,2.289534E3,1.2049917E2,3.9599363E4,1.8505951E3,8.712735E1,1.1984719E2,4.7795925E0,1.1053195E1,4.913967E1,1.5912653E2,1.488162E2,2.2253761E2,2.7051172E1,2.2624827E3,3.665113E1,8.384804E1,3.8154277E4,1.4450879E3,9.447588E2,9.0583636E2,3.2885075E1,5.424228E1,4.4998203E1,7.484898E1,1.2469144E0,3.5326784E0,9.691372E0,1.3618227E0,3.8264534E1,1.0875138E1,5.266231E1,1.064642E2,1.3583566E2,1.2980537E1,3.375296E1,1.8878465E2,1.4882954E1,1.2168218E1,1.5647287E0,2.260918E3,1.2561096E0,3.539502E1,7.505325E1,8.794787E0,1.0961937E3,3.7058082E4,8.6679266E2,5.782952E2,9.009318E2,4.382699E1,8.4379016E2,6.204619E1,5.973892E0,2.6911182E1,3.3789642E1,2.0452637E1,8.295334E0,3.670287E1,1.2332542E1,6.2516445E1],"tree_param":{"num_deleted":"0","num_feature":"48","num_nodes":"77","size_leaf_vector":"1"}},{"base_weights":[-5.129319E-4,-9.0288594E-2,2.5361896E-1,2.4879058E-1,-1.4649086E-1,-7.525306E-2,8.475918E-1,-7.1548987E-3,1.014224E0,1.1565753E0,-1.9142705E-1,-9.661784E-2,1.4592634E0,4.7340944E-1,1.4335117E0,-5.02708E-1,2.3907524E-2,-5.7554835E-1,1.9799058E0,-5.668634E-1,2.3140652E0,1.0948912E0,-2.4022427E-1,3.0742648E-1,-1.6097672E-1,-2.4547508E-1,1.6623788E0,3.424381E-1,1.5751333E0,5.528974E-1,1.8952382E0,-5.30742E-1,-9.655045E-2,2.6117983E-1,-3.632606E-2,-5.8283012E-2,3.4147337E-2,-2.1135941E-1,2.136241E0,1.0218746E-2,-5.7104107E-2,2.464142E0,-8.6707406E-2,2.2256978E0,-5.710835E-2,1.0227872E0,-2.8750715E-1,4.6136674E-2,1.1482735E0,9.2054623E-1,-2.0968585E-1,6.1737467E-2,-4.909216E-2,1.8082328E0,4.3424692E-2,2.5610378E-1,1.8409194E0,2.460534E0,-7.161994E-2,2.4148726E0,1.834337E-1,2.0819447E0,5.974334E-2,-5.5355113E-2,-2.798423E-2,3.603663E-2,-4.774463E-2,5.8172364E-2,2.2469556E-3,-1.4038028E-3,-5.071512E-2,1.4127833E-2,-4.935367E-2,2.3048484E-1,-1.2377517E-4,-2.4253936E-2,2.6000717E-1,7.5671926E-2,-4.1843355E-2,2.539586E-1,8.913523E-2,-6.0056746E-2,2.0962301E-1,9.8212786E-2,-3.3888035E-2,8.482375E-3,-5.6048602E-2,-5.746757E-2,2.2206555E-1,1.7362233E-1,-5.630813E-2,1.0556269E-1,-2.5577879E-2,1.2295287E-1,2.3608752E-1,1.2057846E-1,-4.602038E-2,1.6291896E-1,1.9600278E-2,2.4243341E-1,2.0001775E-2,4.698461E-2,2.5387332E-1,6.856892E-2,-2.3209829E-2,2.908481E-1,2.121483E-1,-6.956162E-5,1.4431307E-1,2.8771399E-2,2.1260202E-1,1.1214586E-1,-1.3537503E-2],"categories":[],"categories_nodes":[],"categories_segments":[],"categories_sizes":[],"default_left":[0,0,0,0,0,1,0,1,1,1,0,0,0,1,0,1,0,0,0,0,0,0,0,0,0,0,0,1,0,0,0,0,0,0,0,0,0,0,0,0,0,0,0,0,0,1,0,0,1,0,0,0,0,0,0,0,0,0,0,0,0,0,0,0,0,0,0,0,0,0,0,0,0,0,0,0,0,0,0,0,0,0,0,0,0,0,0,0,0,0,0,0,0,0,0,0,0,0,0,0,0,0,0,0,0,0,0,0,0,0,0,0,0],"id":14,"left_children":[1,3,5,7,9,11,13,15,17,19,21,23,25,27,29,31,33,35,37,39,41,43,45,47,49,51,53,55,57,59,61,63,65,67,69,-1,-1,71,73,-1,-1,75,77,79,-1,81,83,85,87,89,91,-1,-1,93,95,97,99,101,103,105,107,109,111,-1,-1,-1,-1,-1,-1,-1,-1,-1,-1,-1,-1,-1,-1,-1,-1,-1,-1,-1,-1,-1,-1,-1,-1,-1,-1,-1,-1,-1,-1,-1,-1,-1,-1,-1,-1,-1,-1,-1,-1,-1,-1,-1,-1,-1,-1,-1,-1,-1,-1],"loss_changes":[6.2473474E2,3.856482E2,1.3963945E3,5.6371436E2,1.01663007E3,1.510063E2,5.5782837E2,3.3220165E1,1.1081006E3,1.15591E3,1.0535515E3,1.1809291E2,2.2309326E1,2.2400055E2,4.0243726E2,1.3981743E0,2.9036715E1,2.023674E0,1.5419604E2,7.1056366E-1,1.2503638E2,1.1570217E3,9.658258E2,1.370578E2,2.0650873E2,1.913742E0,1.3297302E1,1.7962088E2,2.4083588E2,2.3534273E2,2.2283105E2,5.2528E-1,1.8152082E0,3.1460821E1,1.7000282E1,0E0,0E0,3.1342072E0,1.5100781E2,0E0,0E0,1.2060559E2,6.2896576E0,1.5088147E2,0E0,1.01831775E3,1.0168877E3,1.1245725E1,2.7456262E2,2.0545677E2,2.188855E2,0E0,0E0,1.370842E1,3.8952715E0,1.08397194E2,7.1958435E1,1.55216675E1,7.291379E0,2.0361633E0,6.658808E1,4.608496E1,1.2808711E1,0E0,0E0,0E0,0E0,0E0,0E0,0E0,0E0,0E0,0E0,0E0,0E0,0E0,0E0,0E0,0E0,0E0,0E0,0E0,0E0,0E0,0E0,0E0,0E0,0E0,0E0,0E0,0E0,0E0,0E0,0E0,0E0,0E0,0E0,0E0,0E0,0E0,0E0,0E0,0E0,0E0,0E0,0E0,0E0,0E0,0E0,0E0,0E0,0E0,0E0],"parents":[2147483647,0,0,1,1,2,2,3,3,4,4,5,5,6,6,7,7,8,8,9,9,10,10,11,11,12,12,13,13,14,14,15,15,16,16,17,17,18,18,19,19,20,20,21,21,22,22,23,23,24,24,25,25,26,26,27,27,28,28,29,29,30,30,31,31,32,32,33,33,34,34,37,37,38,38,41,41,42,42,43,43,45,45,46,46,47,47,48,48,49,49,50,50,53,53,54,54,55,55,56,56,57,57,58,58,59,59,60,60,61,61,62,62],"right_children":[2,4,6,8,10,12,14,16,18,20,22,24,26,28,30,32,34,36,38,40,42,44,46,48,50,52,54,56,58,60,62,64,66,68,70,-1,-1,72,74,-1,-1,76,78,80,-1,82,84,86,88,90,92,-1,-1,94,96,98,100,102,104,106,108,110,112,-1,-1,-1,-1,-1,-1,-1,-1,-1,-1,-1,-1,-1,-1,-1,-1,-1,-1,-1,-1,-1,-1,-1,-1,-1,-1,-1,-1,-1,-1,-1,-1,-1,-1,-1,-1,-1,-1,-1,-1,-1,-1,-1,-1,-1,-1,-1,-1,-1,-1],"split_conditions":[4.06E-1,3.5355338E-3,3.472E0,1.5556349E-2,3.1961226E-1,3.7128E1,8.2364994E-1,-9.6E-2,-9.624601E1,-3.6276012E1,8.485281E-3,3.5355338E-3,2.8810492E-2,3.4571E1,-3.2655E0,2.2763875E0,-2.4403332E-7,8.9305547E-7,-0E0,1.4142136E-3,1.7947114E-8,3.323525E1,1.4142136E-3,4.2426405E-3,8.485281E-3,-2.00647E1,6.0901E1,1.0797E1,7.82E-1,1.7672E1,4.5907917E0,1.3918673E-6,1.83E-1,6.244779E-7,1.6E-2,-5.8283012E-2,3.4147337E-2,-2.5419614E0,1.0538707E-9,1.0218746E-2,-5.7104107E-2,-0E0,1.4468356E-2,1.0554107E2,-5.710835E-2,-3.4834878E0,2.1213202E-3,1.15E-2,-9.624601E1,1.20057E2,1.4142136E-3,6.1737467E-2,-4.909216E-2,8.2364994E-1,5.05E-1,-2.8754205E-1,7.82E-1,3.11E-1,1.8384777E-2,3.97E0,3.998E0,9.1499615E-1,3.387E0,-5.5355113E-2,-2.798423E-2,3.603663E-2,-4.774463E-2,5.8172364E-2,2.2469556E-3,-1.4038028E-3,-5.071512E-2,1.4127833E-2,-4.935367E-2,2.3048484E-1,-1.2377517E-4,-2.4253936E-2,2.6000717E-1,7.5671926E-2,-4.1843355E-2,2.539586E-1,8.913523E-2,-6.0056746E-2,2.0962301E-1,9.8212786E-2,-3.3888035E-2,8.482375E-3,-5.6048602E-2,-5.746757E-2,2.2206555E-1,1.7362233E-1,-5.630813E-2,1.0556269E-1,-2.5577879E-2,1.2295287E-1,2.3608752E-1,1.2057846E-1,-4.602038E-2,1.6291896E-1,1.9600278E-2,2.4243341E-1,2.0001775E-2,4.698461E-2,2.5387332E-1,6.856892E-2,-2.3209829E-2,2.908481E-1,2.121483E-1,-6.956162E-5,1.4431307E-1,2.8771399E-2,2.1260202E-1,1.1214586E-1,-1.3537503E-2],"split_indices":[12,43,11,42,45,18,12,38,2,14,44,43,47,18,35,16,28,27,27,47,25,36,47,47,44,36,18,19,12,19,11,28,17,23,34,0,0,36,27,0,0,25,44,31,0,38,46,32,2,13,47,0,0,12,19,32,12,17,39,11,11,30,10,0,0,0,0,0,0,0,0,0,0,0,0,0,0,0,0,0,0,0,0,0,0,0,0,0,0,0,0,0,0,0,0,0,0,0,0,0,0,0,0,0,0,0,0,0,0,0,0,0,0],"split_type":[0,0,0,0,0,0,0,0,0,0,0,0,0,0,0,0,0,0,0,0,0,0,0,0,0,0,0,0,0,0,0,0,0,0,0,0,0,0,0,0,0,0,0,0,0,0,0,0,0,0,0,0,0,0,0,0,0,0,0,0,0,0,0,0,0,0,0,0,0,0,0,0,0,0,0,0,0,0,0,0,0,0,0,0,0,0,0,0,0,0,0,0,0,0,0,0,0,0,0,0,0,0,0,0,0,0,0,0,0,0,0,0,0],"sum_hessian":[2.7380799E4,2.023363E4,7.1471694E3,2.8763894E3,1.735724E4,4.600712E3,2.5464575E3,2.1563425E3,7.2004675E2,5.7778577E2,1.6779455E4,4.538461E3,6.2251083E1,1.5551252E3,9.9133215E2,1.2629627E2,2.0300464E3,2.722515E2,4.477953E2,2.3234584E2,3.454399E2,6.1249E2,1.6166965E4,6.2306836E2,3.9153926E3,6.6052194E0,5.5645866E1,1.391068E3,1.6405733E2,3.4174548E2,6.495867E2,1.1785491E2,8.4413595E0,4.1033142E2,1.619715E3,2.704682E2,1.7832804E0,2.9796843E1,4.1799844E2,1.2962075E0,2.3104964E2,3.250914E2,2.0348484E1,3.646453E2,2.478447E2,5.8265155E2,1.5584313E4,4.761588E2,1.4690955E2,1.6796858E2,3.7474238E3,1.1272256E0,5.477994E0,5.0939716E1,4.7061477E0,1.3163954E3,7.4672615E1,1.06371155E2,5.7686176E1,5.5666832E1,2.8607864E2,5.894895E2,6.0097145E1,1.0692788E2,1.0927027E1,3.8622103E0,4.5791492E0,1.7453125E2,2.3580017E2,1.5474894E3,7.22256E1,1.34667425E1,1.63301E1,3.8736426E2,3.0634178E1,1.5507883E1,3.0958353E2,5.38239E0,1.4966094E1,2.9447128E2,7.0174E1,2.3209607E2,3.505555E2,6.0535944E2,1.4978954E4,4.4842114E2,2.7737677E1,5.6537434E1,9.0372116E1,1.0827197E2,5.9696617E1,1.3094363E2,3.6164802E3,2.6458399E1,2.4481318E1,1.0012038E0,3.704944E0,5.4108517E1,1.2622869E3,5.473457E1,1.993805E1,4.2854652E0,1.02085686E2,9.514371E0,4.8171803E1,1.7429522E1,3.8237312E1,2.504674E2,3.5611256E1,1.4314169E1,5.7517535E2,8.592796E0,5.150435E1],"tree_param":{"num_deleted":"0","num_feature":"48","num_nodes":"113","size_leaf_vector":"1"}},{"base_weights":[1.2938041E-3,2.3356494E-2,-5.895906E-1,8.785345E-1,9.369635E-3,-6.210486E-1,-2.219129E-1,1.029269E0,-1.4458415E-1,-1.10980496E-1,1.0723981E-1,1.8023241E-2,-6.2226075E-1,4.6949023E-1,-5.828254E-1,1.7050344E-1,1.1615378E0,-2.6240283E-1,9.404821E-1,2.5109878E-1,-1.3805664E-1,5.828465E-2,5.468478E-1,-5.727526E-1,-6.3652396E-2,-2.640772E-1,5.709489E-1,2.5509143E-1,-6.1439186E-1,-3.1859478E-1,2.7677768E-1,7.395912E-1,1.192515E0,2.5736848E-1,-4.2105633E-1,-3.6236532E-2,1.17348924E-1,-3.8314843E-1,6.1877847E-1,-3.6762404E-1,-9.8510146E-2,2.463937E-2,4.5190465E-1,8.0242026E-1,-2.9245698E-1,-2.5739098E-1,-5.8949465E-1,4.2609807E-2,-5.407033E-2,6.9382113E-1,-7.5536475E-2,8.245429E-2,-3.9325904E-2,-6.367663E-2,-2.3121113E-2,-4.8332095E-2,4.913191E-2,4.2398408E-2,-2.0074269E-2,-5.3197857E-2,9.0280406E-2,1.2192329E-1,7.982459E-2,5.0242968E-2,-5.6450363E-2,-5.7351273E-2,-5.856322E-3,-6.357626E-2,-2.7684048E-2,1.1043242E-1,4.9564686E-2,-1.2490899E-2,-5.9985783E-2,4.7498707E-2,-1.1237665E-2,4.8321895E-2,1.1095596E-4,-2.796853E-2,5.9341993E-2,3.2006476E-2,9.762544E-2,8.421679E-2,-6.305382E-2,-3.9257772E-2,9.3931496E-2,-5.9482235E-2,-1.658983E-3,1.4477963E-2,8.8535346E-2,9.20947E-2,-5.736397E-2,-4.3128986E-2,5.121687E-2],"categories":[],"categories_nodes":[],"categories_segments":[],"categories_sizes":[],"default_left":[0,0,1,0,0,0,0,0,0,0,0,0,0,0,0,0,0,0,0,0,0,1,0,0,0,0,0,0,1,1,0,0,0,0,0,0,0,0,0,0,0,0,0,0,0,0,1,0,0,0,0,0,0,0,0,0,0,0,0,0,0,0,0,0,0,0,0,0,0,0,0,0,0,0,0,0,0,0,0,0,0,0,0,0,0,0,0,0,0,0,0,0,0],"id":15,"left_children":[1,3,5,7,9,11,13,15,17,19,21,-1,23,25,27,29,31,33,35,37,39,41,43,45,-1,47,49,51,53,55,57,59,61,63,65,-1,-1,67,69,71,73,75,77,79,81,83,85,-1,-1,87,89,-1,-1,-1,91,-1,-1,-1,-1,-1,-1,-1,-1,-1,-1,-1,-1,-1,-1,-1,-1,-1,-1,-1,-1,-1,-1,-1,-1,-1,-1,-1,-1,-1,-1,-1,-1,-1,-1,-1,-1,-1,-1],"loss_changes":[5.924525E2,5.2401215E2,1.878247E1,1.08871826E2,5.0774207E2,1.5751953E0,3.2833443E1,6.961139E1,1.193204E1,1.8957109E2,5.1160388E2,0E0,6.9763184E-1,3.5226803E0,2.4360943E0,4.4126863E0,6.076782E0,6.972106E0,3.2092743E0,3.140051E2,1.6327524E2,2.8330133E2,5.1119415E2,1.67733E0,0E0,1.4118991E0,3.239071E0,1.7402432E0,1.0878239E0,2.2807999E0,4.927118E0,8.5835495E0,4.234192E0,4.328982E0,3.5115328E0,0E0,0E0,1.3100395E1,5.0397186E1,1.489065E2,1.2209537E2,2.126666E2,1.7456616E2,1.528219E2,2.1410413E2,3.481235E0,9.9183655E-1,0E0,0E0,3.427023E0,4.155995E0,0E0,0E0,0E0,1.1115444E0,0E0,0E0,0E0,0E0,0E0,0E0,0E0,0E0,0E0,0E0,0E0,0E0,0E0,0E0,0E0,0E0,0E0,0E0,0E0,0E0,0E0,0E0,0E0,0E0,0E0,0E0,0E0,0E0,0E0,0E0,0E0,0E0,0E0,0E0,0E0,0E0,0E0,0E0],"parents":[2147483647,0,0,1,1,2,2,3,3,4,4,5,5,6,6,7,7,8,8,9,9,10,10,12,12,13,13,14,14,15,15,16,16,17,17,18,18,19,19,20,20,21,21,22,22,23,23,25,25,26,26,27,27,28,28,29,29,30,30,31,31,32,32,33,33,34,34,37,37,38,38,39,39,40,40,41,41,42,42,43,43,44,44,45,45,46,46,49,49,50,50,54,54],"right_children":[2,4,6,8,10,12,14,16,18,20,22,-1,24,26,28,30,32,34,36,38,40,42,44,46,-1,48,50,52,54,56,58,60,62,64,66,-1,-1,68,70,72,74,76,78,80,82,84,86,-1,-1,88,90,-1,-1,-1,92,-1,-1,-1,-1,-1,-1,-1,-1,-1,-1,-1,-1,-1,-1,-1,-1,-1,-1,-1,-1,-1,-1,-1,-1,-1,-1,-1,-1,-1,-1,-1,-1,-1,-1,-1,-1,-1,-1],"split_conditions":[1.4158224E0,3.8E-2,2.6097995E-1,4.1931432E-1,5.4E-2,3.7077394E-1,2.416E0,1.06E-1,3.4737048E0,-6.4E-2,3.44E-1,1.8023241E-2,2.28E-1,1.8930164E5,-1.08281725E-4,1.6263455E-2,1.4142136E-3,5.3571635E-1,6.8E-2,-1.1220318E0,1.2642E1,2.2010844E-2,4.06E-1,-3.1089814E-6,-6.3652396E-2,2.9190952E-1,4E-3,-2.0002E1,1.0215E2,1.5E-3,2.042494E-6,3.1061536E-1,3.312971E-1,4.830775E0,6.120151E-1,-3.6236532E-2,1.17348924E-1,-2.1566525E-1,8.2283564E-2,3.182E0,4.45E-1,-9.6E-2,1.5556349E-2,1.13E-1,1.07E-1,-2.725322E-6,9.9E-2,4.2609807E-2,-5.407033E-2,1.4498E1,4.88E-1,8.245429E-2,-3.9325904E-2,-6.367663E-2,2.520715E-1,-4.8332095E-2,4.913191E-2,4.2398408E-2,-2.0074269E-2,-5.3197857E-2,9.0280406E-2,1.2192329E-1,7.982459E-2,5.0242968E-2,-5.6450363E-2,-5.7351273E-2,-5.856322E-3,-6.357626E-2,-2.7684048E-2,1.1043242E-1,4.9564686E-2,-1.2490899E-2,-5.9985783E-2,4.7498707E-2,-1.1237665E-2,4.8321895E-2,1.1095596E-4,-2.796853E-2,5.9341993E-2,3.2006476E-2,9.762544E-2,8.421679E-2,-6.305382E-2,-3.9257772E-2,9.3931496E-2,-5.9482235E-2,-1.658983E-3,1.4477963E-2,8.8535346E-2,9.20947E-2,-5.736397E-2,-4.3128986E-2,5.121687E-2],"split_indices":[38,16,16,47,12,19,38,38,47,38,17,0,17,0,27,40,47,47,38,38,9,34,12,21,0,47,34,2,14,35,27,38,47,43,39,0,0,17,17,8,19,38,41,12,16,20,34,0,0,9,19,0,0,0,47,0,0,0,0,0,0,0,0,0,0,0,0,0,0,0,0,0,0,0,0,0,0,0,0,0,0,0,0,0,0,0,0,0,0,0,0,0,0],"split_type":[0,0,0,0,0,0,0,0,0,0,0,0,0,0,0,0,0,0,0,0,0,0,0,0,0,0,0,0,0,0,0,0,0,0,0,0,0,0,0,0,0,0,0,0,0,0,0,0,0,0,0,0,0,0,0,0,0,0,0,0,0,0,0,0,0,0,0,0,0,0,0,0,0,0,0,0,0,0,0,0,0,0,0,0,0,0,0,0,0,0,0,0,0],"sum_hessian":[4.5443617E4,4.3808824E4,1.6347916E3,7.039898E2,4.3104836E4,1.5053102E3,1.2948138E2,6.1358527E2,9.040455E1,1.9332137E4,2.37727E4,2.0506332E0,1.5032596E3,4.430503E1,8.517635E1,8.219791E1,5.313874E2,8.223363E1,8.170923E0,1.3444901E3,1.7987646E4,2.1391639E4,2.38106E3,3.454263E2,1.1578333E3,5.188473E0,3.9116558E1,2.835234E0,8.234112E1,1.4315746E1,6.7882164E1,3.804508E1,4.933423E2,1.9085297E1,6.314833E1,1.1553996E0,7.015524E0,4.9337555E2,8.511146E2,2.6420789E3,1.5345567E4,1.970812E4,1.6835195E3,1.8252933E3,5.5576685E2,1.823912E1,3.271872E2,1.3299477E0,3.8585255E0,3.280782E1,6.308737E0,1.3647809E0,1.4704531E0,7.92647E1,3.0764198E0,1.22313E1,2.0844462E0,5.1972565E1,1.5909598E1,4.0707765E0,3.3974304E1,4.600728E2,3.326948E1,1.5001046E1,4.0842505E0,4.4042793E1,1.910554E1,1.4465613E2,3.4871942E2,1.7056311E2,6.805515E2,1.2926384E3,1.3494406E3,3.6149338E2,1.4984073E4,9.6092017E2,1.87472E4,2.7271112E2,1.4108085E3,4.8429932E2,1.340994E3,1.272421E2,4.2852472E2,1.6991604E1,1.2475168E0,3.2413467E2,3.0525331E0,8.939109E0,2.3868711E1,1.8196057E0,4.489131E0,1.8557001E0,1.2207198E0],"tree_param":{"num_deleted":"0","num_feature":"48","num_nodes":"93","size_leaf_vector":"1"}},{"base_weights":[-5.9719374E-3,1.6198913E0,-8.363938E-2,1.6210249E-1,1.4795788E-2,2.4013302E0,-1.3215995E-1,2.5350735E0,-1.4167607E-1,-1.8163057E-1,2.2879646E0,2.5546107E0,-2.9763835E-2,1.17088355E-1,-3.4180698E-1,2.1440414E-1,-2.3361944E-1,2.410967E0,-4.6530455E-2,-3.9508637E-2,2.5689137E0,5.5518962E-2,-4.06706E-2,1.17323235E-1,-4.6344838E-1,1.9117398E0,-2.8975165E-1,2.395681E-2,2.4425726E0,-2.0173432E-1,1.2626928E-1,1.44329E-1,2.584471E-1,-5.4677244E-2,2.1513316E-3,1.9952206E-1,-4.606632E-2,2.05899E-1,-3.445957E-2,7.797511E-2,-3.155153E-2,2.465895E-1,-4.8200566E-2,1.13538526E-1,-3.4216832E-2],"categories":[],"categories_nodes":[],"categories_segments":[],"categories_sizes":[],"default_left":[1,1,1,0,0,0,0,0,0,1,0,0,0,0,1,0,1,0,0,0,1,0,0,0,0,0,1,1,0,1,0,0,0,0,0,0,0,0,0,0,0,0,0,0,0],"id":16,"left_children":[1,3,5,-1,-1,7,9,11,13,15,17,19,21,-1,23,-1,25,27,29,-1,31,-1,-1,-1,33,35,37,39,41,43,-1,-1,-1,-1,-1,-1,-1,-1,-1,-1,-1,-1,-1,-1,-1],"loss_changes":[3.4468357E3,1.8366699E0,3.1413853E3,0E0,0E0,1.7006738E2,3.0597954E3,2.3833008E1,7.1980743E0,3.028357E3,1.4711987E2,2.08667E1,1.2340147E0,0E0,4.8245974E0,0E0,2.9504248E3,3.663257E1,5.660865E0,0E0,4.472168E0,0E0,0E0,0E0,9.096174E-1,1.2464258E2,3.0757754E3,2.1357436E0,3.392749E1,5.016818E0,0E0,0E0,0E0,0E0,0E0,0E0,0E0,0E0,0E0,0E0,0E0,0E0,0E0,0E0,0E0],"parents":[2147483647,0,0,1,1,2,2,5,5,6,6,7,7,8,8,9,9,10,10,11,11,12,12,14,14,16,16,17,17,18,18,20,20,24,24,25,25,26,26,27,27,28,28,29,29],"right_children":[2,4,6,-1,-1,8,10,12,14,16,18,20,22,-1,24,-1,26,28,30,-1,32,-1,-1,-1,34,36,38,40,42,44,-1,-1,-1,-1,-1,-1,-1,-1,-1,-1,-1,-1,-1,-1,-1],"split_conditions":[-3.16544E2,1.2014363E2,-1E-5,1.6210249E-1,1.4795788E-2,1.6263455E-2,8.229E0,3.5157381E-9,8.078E0,-1.6084401E2,1.5556349E-2,-6.615488E-8,3.0468243E-7,1.17088355E-1,-1.6084401E2,2.1440414E-1,-1E-5,-6.278092E-9,1.20011E2,-3.9508637E-2,-1.0912201E2,5.5518962E-2,-4.06706E-2,1.17323235E-1,1.9435834E0,1.5556349E-2,-3.6276012E1,1.9815E1,9.2992236E-10,-1.0912201E2,1.2626928E-1,1.44329E-1,2.584471E-1,-5.4677244E-2,2.1513316E-3,1.9952206E-1,-4.606632E-2,2.05899E-1,-3.445957E-2,7.797511E-2,-3.155153E-2,2.465895E-1,-4.8200566E-2,1.13538526E-1,-3.4216832E-2],"split_indices":[38,13,6,0,0,40,8,21,9,18,42,21,21,0,18,0,7,23,13,0,19,0,0,0,42,41,14,18,23,19,0,0,0,0,0,0,0,0,0,0,0,0,0,0,0],"split_type":[0,0,0,0,0,0,0,0,0,0,0,0,0,0,0,0,0,0,0,0,0,0,0,0,0,0,0,0,0,0,0,0,0,0,0,0,0,0,0,0,0,0,0,0,0],"sum_hessian":[2.7293836E4,1.2434766E3,2.605036E4,1.2424185E3,1.0580853E0,4.979791E2,2.555238E4,4.7310062E2,2.4878487E1,2.5041424E4,5.1095563E2,4.6952808E2,3.572539E0,2.649717E0,2.222877E1,5.4666486E2,2.449476E4,4.8535016E2,2.5605455E1,2.1372833E0,4.673908E2,1.2146778E0,2.3578613E0,1.0095724E0,2.1219198E1,6.237086E2,2.387105E4,6.3652897E0,4.789849E2,2.3647982E1,1.9574732E0,7.6501374E0,4.5974066E2,1.7999199E1,3.2199993E0,6.02661E2,2.1047634E1,5.4384607E2,2.3327205E4,1.5709049E0,4.794385E0,4.7535098E2,3.6339087E0,1.5742433E0,2.2073738E1],"tree_param":{"num_deleted":"0","num_feature":"48","num_nodes":"45","size_leaf_vector":"1"}},{"base_weights":[1.5083534E-3,-5.064777E-1,3.700512E-2,-5.313632E-1,-2.3790562E-1,6.591407E-2,-4.7475764E-1,-5.493565E-1,-2.4531347E-1,7.9147625E-1,-2.6895806E-1,9.2237204E-2,-3.9516822E-1,-4.3494576E-1,-5.617059E-1,-5.6435E-1,-5.108529E-1,-2.84784E-1,6.3615495E-1,1.2166748E0,-3.0465001E-2,-1.28825E-1,-5.5428118E-2,-4.9050036E-1,1.1128752E-1,-5.069651E-1,-3.1888688E-1,-5.308498E-1,-3.686517E-1,-5.639828E-1,4.1001584E-4,-5.6524497E-2,-2.346153E-1,-5.514545E-1,-4.3464237E-1,2.024054E-2,-3.6615014E-1,1.1890481E-1,-3.3973556E-2,1.5337153E-1,2.0025788E-2,1.5985908E-1,-4.0646845E-1,-5.5503637E-1,-4.0543556E-1,1.302742E-1,-4.7543567E-1,-5.401663E-1,-2.2554267E-2,3.2688152E-2,-3.446815E-1,-1.8574981E-1,-5.527037E-1,3.1067827E-1,-3.9076248E-1,-3.317847E-1,-5.6625724E-2,1.794546E-2,-4.1096356E-2,-3.298659E-2,-5.580877E-2,1.1033974E-2,-5.1406886E-2,-3.7444375E-2,5.809417E-2,-4.0909022E-2,2.5804028E-2,-1.1825564E-2,5.168807E-2,-5.4930896E-2,-2.3194008E-2,-1.5280007E-2,-5.6209035E-2,2.2616448E-2,-4.3894317E-2,-5.2851975E-2,1.4811123E-2,-5.3583022E-2,-2.9836494E-2,-2.6018063E-2,-5.6123137E-2,3.8980473E-2,-2.2340314E-2,-1.5299563E-2,6.843936E-2,-3.0760229E-2,-5.3056717E-2,-3.8607717E-2,4.4828024E-2,-5.6323405E-2,-3.581327E-2,5.981183E-2,-4.813776E-2,-4.257893E-2,-1.940721E-2,-4.6629183E-2,1.6613593E-2],"categories":[],"categories_nodes":[],"categories_segments":[],"categories_sizes":[],"default_left":[1,1,0,1,0,0,0,0,0,0,0,1,0,0,0,0,0,0,0,0,0,0,0,0,0,0,0,0,0,0,0,0,0,0,1,0,0,0,0,0,0,0,0,0,0,1,0,0,0,0,0,0,0,0,1,0,0,0,0,0,0,0,0,0,0,0,0,0,0,0,0,0,0,0,0,0,0,0,0,0,0,0,0,0,0,0,0,0,0,0,0,0,0,0,0,0,0],"id":17,"left_children":[1,3,5,7,9,11,13,15,17,19,21,23,25,27,29,31,33,35,37,39,-1,41,-1,43,45,47,49,51,53,55,-1,-1,57,59,61,63,65,-1,-1,-1,-1,67,69,71,73,75,77,79,81,83,85,87,89,91,93,95,-1,-1,-1,-1,-1,-1,-1,-1,-1,-1,-1,-1,-1,-1,-1,-1,-1,-1,-1,-1,-1,-1,-1,-1,-1,-1,-1,-1,-1,-1,-1,-1,-1,-1,-1,-1,-1,-1,-1,-1,-1],"loss_changes":[4.927279E2,1.1801849E1,3.77893E2,8.268005E0,5.1084957E0,2.9346246E2,4.483307E0,5.979309E-1,3.6054711E0,2.579128E0,5.902814E0,2.5395384E2,1.097464E1,5.788559E0,5.5049133E-1,1.9067383E-1,1.1242752E0,2.3625703E0,2.8468363E0,8.575716E-1,0E0,8.200883E0,0E0,3.7506256E0,2.4678757E2,8.478607E0,7.075035E0,2.78154E0,8.5299225E0,3.593445E-2,0E0,0E0,4.150935E-1,2.3313904E-1,6.893032E0,4.8494554E0,2.114808E0,0E0,0E0,0E0,0E0,5.0736065E0,1.1695662E0,1.0748138E0,6.7894363E0,2.5218704E2,7.266815E0,2.7677155E0,2.9781368E0,6.6580696E0,4.8390884E0,3.2571883E0,5.341339E-1,4.4322076E0,3.6555634E0,5.145467E-1,0E0,0E0,0E0,0E0,0E0,0E0,0E0,0E0,0E0,0E0,0E0,0E0,0E0,0E0,0E0,0E0,0E0,0E0,0E0,0E0,0E0,0E0,0E0,0E0,0E0,0E0,0E0,0E0,0E0,0E0,0E0,0E0,0E0,0E0,0E0,0E0,0E0,0E0,0E0,0E0,0E0],"parents":[2147483647,0,0,1,1,2,2,3,3,4,4,5,5,6,6,7,7,8,8,9,9,10,10,11,11,12,12,13,13,14,14,15,15,16,16,17,17,18,18,19,19,21,21,23,23,24,24,25,25,26,26,27,27,28,28,29,29,32,32,33,33,34,34,35,35,36,36,41,41,42,42,43,43,44,44,45,45,46,46,47,47,48,48,49,49,50,50,51,51,52,52,53,53,54,54,55,55],"right_children":[2,4,6,8,10,12,14,16,18,20,22,24,26,28,30,32,34,36,38,40,-1,42,-1,44,46,48,50,52,54,56,-1,-1,58,60,62,64,66,-1,-1,-1,-1,68,70,72,74,76,78,80,82,84,86,88,90,92,94,96,-1,-1,-1,-1,-1,-1,-1,-1,-1,-1,-1,-1,-1,-1,-1,-1,-1,-1,-1,-1,-1,-1,-1,-1,-1,-1,-1,-1,-1,-1,-1,-1,-1,-1,-1,-1,-1,-1,-1,-1,-1],"split_conditions":[-7.2E-2,1.196E0,2.2010844E-2,-9.6E-2,4.6056613E4,9.5E-3,6.084817E-1,5.36E-1,4.488E0,2E-3,1.5E-2,-1.05E-2,1.5556349E-2,8.555992E-2,4E0,2.9917688E0,1.8099263E-2,-4.133788E-6,9.0182E1,2.2805107E-5,-3.0465001E-2,2.09E-1,-5.5428118E-2,9.616652E-2,1.83E-1,5.7017928E-8,2.3E-2,-1.7812262E-7,1.4E-2,8.106691E3,4.1001584E-4,-5.6524497E-2,-1.8394125E1,5.84E-1,-2.1918009E1,-2.3317045E-6,2.967E0,1.1890481E-1,-3.3973556E-2,1.5337153E-1,2.0025788E-2,1.6E-1,1.3559617E-7,-7.353399E-7,8E-3,3.7077394E-1,1.4589E1,-1.3850828E-7,3.37E0,1.9057391E0,3.1256E1,-3.5805766E-7,3.1581945E-7,5.8729715E0,1.11457914E-1,2.4E-2,-5.6625724E-2,1.794546E-2,-4.1096356E-2,-3.298659E-2,-5.580877E-2,1.1033974E-2,-5.1406886E-2,-3.7444375E-2,5.809417E-2,-4.0909022E-2,2.5804028E-2,-1.1825564E-2,5.168807E-2,-5.4930896E-2,-2.3194008E-2,-1.5280007E-2,-5.6209035E-2,2.2616448E-2,-4.3894317E-2,-5.2851975E-2,1.4811123E-2,-5.3583022E-2,-2.9836494E-2,-2.6018063E-2,-5.6123137E-2,3.8980473E-2,-2.2340314E-2,-1.5299563E-2,6.843936E-2,-3.0760229E-2,-5.3056717E-2,-3.8607717E-2,4.4828024E-2,-5.6323405E-2,-3.581327E-2,5.981183E-2,-4.813776E-2,-4.257893E-2,-1.940721E-2,-4.6629183E-2,1.6613593E-2],"split_indices":[38,16,34,38,0,35,19,16,11,32,12,32,42,41,1,42,47,26,14,24,0,17,0,39,33,23,12,22,12,0,0,0,37,16,16,25,12,0,0,0,0,17,21,20,12,19,9,23,6,42,18,22,22,43,32,38,0,0,0,0,0,0,0,0,0,0,0,0,0,0,0,0,0,0,0,0,0,0,0,0,0,0,0,0,0,0,0,0,0,0,0,0,0,0,0,0,0],"split_type":[0,0,0,0,0,0,0,0,0,0,0,0,0,0,0,0,0,0,0,0,0,0,0,0,0,0,0,0,0,0,0,0,0,0,0,0,0,0,0,0,0,0,0,0,0,0,0,0,0,0,0,0,0,0,0,0,0,0,0,0,0,0,0,0,0,0,0,0,0,0,0,0,0,0,0,0,0,0,0,0,0,0,0,0,0,0,0,0,0,0,0,0,0,0,0,0,0],"sum_hessian":[2.7323363E4,1.783718E3,2.5539645E4,1.6315614E3,1.5215666E2,2.4174902E4,1.364744E3,1.5341392E3,9.7422134E1,3.7384763E0,1.4841818E2,2.2870053E4,1.3048485E3,9.4023254E2,4.245115E2,1.0943418E3,4.3979742E2,9.389463E1,3.5275054E0,2.614362E0,1.1241144E0,1.0050692E2,4.7911266E1,7.231957E2,2.2146857E4,5.269345E2,7.7791394E2,3.8143042E2,5.588021E2,4.2281323E2,1.6982524E0,1.0906671E3,3.6746345E0,2.8286404E2,1.5693336E2,1.9930534E1,7.3964096E1,2.112334E0,1.4151714E0,1.6048383E0,1.0095236E0,4.9481743E1,5.1025177E1,4.0807608E2,3.1511957E2,2.145339E4,6.934658E2,4.9302762E2,3.3906895E1,5.315503E1,7.247589E2,2.32818E1,3.5814862E2,1.7203157E1,5.41599E2,5.5261126E0,4.1728714E2,1.0922921E0,2.5823424E0,9.695838E0,2.731682E2,1.9912848E1,1.3702051E2,1.1891882E1,8.038651E0,6.95258E1,4.438296E0,2.819051E1,2.1291231E1,2.687901E1,2.414617E1,7.4236E0,4.0065247E2,1.5585809E1,2.9953378E2,5.647892E2,2.0888602E4,5.1558594E2,1.7787988E2,3.5432236E1,4.575954E2,1.0797652E1,2.3109241E1,4.1963917E1,1.1191113E1,6.064443E2,1.1831463E2,1.7989069E1,5.29273E0,3.3796313E2,2.0185513E1,1.2802087E1,4.401071E0,4.5874118E2,8.285777E1,4.4008102E0,1.1253027E0],"tree_param":{"num_deleted":"0","num_feature":"48","num_nodes":"97","size_leaf_vector":"1"}},{"base_weights":[1.883445E-3,-2.3495259E-2,6.0957634E-1,1.1739491E0,-3.452861E-2,1.2169056E0,4.9535653E-1,1.2173995E-1,-1.7457928E-1,-4.9510908E-1,-7.0412704E-3,1.2409824E0,5.4805267E-1,3.32067E-1,7.512188E-1,4.8282808E-1,-4.1658935E-1,7.714459E-2,-5.5847186E-1,-1.577329E-2,1.1732793E0,7.4346545E-3,1.2458091E0,1.08129025E-1,-5.3556174E-2,9.1999316E-1,8.770679E-3,1.0269957E0,-6.416317E-2,9.307965E-2,-3.553357E-2,3.8655747E-2,-6.0075063E-2,6.20884E-1,-6.934962E-2,-5.694975E-1,1.4687312E-1,1.3652258E-1,-2.235832E-2,1.1940633E0,6.7434597E-1,4.6293925E-2,1.2502287E-1,4.9958393E-2,1.1366407E0,1.7471002E-1,-1.9139439E-1,-6.6221096E-2,1.0744807E0,-1.9595042E-1,5.96548E-1,3.2427285E-2,1.04595564E-1,-2.4482552E-2,6.667507E-2,-5.8600575E-2,-3.535855E-2,-5.619144E-2,7.5840384E-2,1.3443552E-1,-2.891682E-3,1.21492766E-1,9.0594016E-2,-3.6490608E-2,1.14932895E-1,9.811942E-2,-3.001615E-3,1.570022E-2,1.1736305E-1,-2.012979E-3,3.8429223E-2,-3.0730158E-2,-3.940539E-3,-6.0134526E-2,1.1011177E-1,2.14333E-2,-3.1933837E-2,1.0496543E-2,1.0261976E-1],"categories":[],"categories_nodes":[],"categories_segments":[],"categories_sizes":[],"default_left":[0,0,0,0,1,0,0,0,0,0,0,1,0,0,0,0,0,0,0,0,0,0,0,0,0,0,0,0,0,0,0,0,0,0,0,1,1,0,0,0,0,0,0,0,0,0,0,0,0,0,0,0,0,0,0,0,0,0,0,0,0,0,0,0,0,0,0,0,0,0,0,0,0,0,0,0,0,0,0],"id":18,"left_children":[1,3,5,7,9,11,13,-1,15,17,19,21,23,25,27,29,31,33,35,37,39,-1,41,-1,-1,43,45,47,49,-1,-1,-1,-1,51,53,55,57,-1,59,61,63,-1,-1,65,67,69,71,-1,73,75,77,-1,-1,-1,-1,-1,-1,-1,-1,-1,-1,-1,-1,-1,-1,-1,-1,-1,-1,-1,-1,-1,-1,-1,-1,-1,-1,-1,-1],"loss_changes":[7.012247E2,5.766721E2,1.25837585E2,2.3562622E1,5.475169E2,3.9552917E0,6.3918823E1,0E0,2.3193727E0,8.8358215E1,4.2066077E2,1.4674683E0,7.3931255E0,1.7853522E2,1.3443085E2,1.8497524E0,1.7509938E0,1.9453314E1,1.7138062E1,3.6846393E2,2.3029785E0,0E0,3.757019E-1,0E0,0E0,6.2759766E1,2.019754E1,3.65325E1,1.3348736E1,0E0,0E0,0E0,0E0,6.194189E0,2.5074713E1,7.489563E0,1.5400285E1,0E0,3.614774E2,6.213379E-1,7.47042E0,0E0,0E0,5.0555406E0,9.482727E0,1.3582746E1,4.843692E0,0E0,2.0069E1,6.5202E0,5.2818003E0,0E0,0E0,0E0,0E0,0E0,0E0,0E0,0E0,0E0,0E0,0E0,0E0,0E0,0E0,0E0,0E0,0E0,0E0,0E0,0E0,0E0,0E0,0E0,0E0,0E0,0E0,0E0,0E0],"parents":[2147483647,0,0,1,1,2,2,3,3,4,4,5,5,6,6,8,8,9,9,10,10,11,11,12,12,13,13,14,14,15,15,16,16,17,17,18,18,19,19,20,20,22,22,25,25,26,26,27,27,28,28,33,33,34,34,35,35,36,36,38,38,39,39,40,40,43,43,44,44,45,45,46,46,48,48,49,49,50,50],"right_children":[2,4,6,8,10,12,14,-1,16,18,20,22,24,26,28,30,32,34,36,38,40,-1,42,-1,-1,44,46,48,50,-1,-1,-1,-1,52,54,56,58,-1,60,62,64,-1,-1,66,68,70,72,-1,74,76,78,-1,-1,-1,-1,-1,-1,-1,-1,-1,-1,-1,-1,-1,-1,-1,-1,-1,-1,-1,-1,-1,-1,-1,-1,-1,-1,-1,-1],"split_conditions":[6.1801136E-1,-2.1566525E-1,3.8E-2,-5.24E-1,-7.2E-2,6.5338497E0,3.4737048E0,1.2173995E-1,0E0,-1.1220318E0,4.000787E0,1.9523E1,-6.3420576E-1,-9.6E-2,6.5338497E0,1.865E0,-6.970981E-7,2.6870057E-2,4.6458477E-1,1.7087961E1,5.4684E1,7.4346545E-3,5.7E-2,1.08129025E-1,-5.3556174E-2,-7.248869E0,8.3E-2,1.6263455E-2,2.3331686E1,9.307965E-2,-3.553357E-2,3.8655747E-2,-6.0075063E-2,1.2E-2,4.5333248E-1,-9.6E-2,1.25E-1,1.3652258E-1,-2.2053056E0,3.6882308E-1,1.27E-1,4.6293925E-2,1.2502287E-1,-2.1566525E-1,1.11E-1,3.8687563E0,5.4205745E-1,-6.6221096E-2,3.1961226E-1,-3.4834878E0,5.876057E-1,3.2427285E-2,1.04595564E-1,-2.4482552E-2,6.667507E-2,-5.8600575E-2,-3.535855E-2,-5.619144E-2,7.5840384E-2,1.3443552E-1,-2.891682E-3,1.21492766E-1,9.0594016E-2,-3.6490608E-2,1.14932895E-1,9.811942E-2,-3.001615E-3,1.570022E-2,1.1736305E-1,-2.012979E-3,3.8429223E-2,-3.0730158E-2,-3.940539E-3,-6.0134526E-2,1.1011177E-1,2.14333E-2,-3.1933837E-2,1.0496543E-2,1.0261976E-1],"split_indices":[47,17,16,38,38,47,47,0,32,38,38,18,16,38,47,19,20,44,47,18,18,0,38,0,0,38,12,40,46,0,0,0,0,12,47,38,17,0,19,47,16,0,0,17,17,43,40,0,45,38,41,0,0,0,0,0,0,0,0,0,0,0,0,0,0,0,0,0,0,0,0,0,0,0,0,0,0,0,0],"split_type":[0,0,0,0,0,0,0,0,0,0,0,0,0,0,0,0,0,0,0,0,0,0,0,0,0,0,0,0,0,0,0,0,0,0,0,0,0,0,0,0,0,0,0,0,0,0,0,0,0,0,0,0,0,0,0,0,0,0,0,0,0,0,0,0,0,0,0,0,0,0,0,0,0,0,0,0,0,0,0],"sum_hessian":[4.5465836E4,4.3644117E4,1.821721E3,3.9750665E2,4.324661E4,2.8684668E2,1.5348743E3,3.8519275E2,1.2313905E1,2.4346343E3,4.0811977E4,2.760541E2,1.0792567E1,9.383339E2,5.965403E2,3.0456057E0,9.268299E0,2.4268005E2,2.191954E3,4.0513246E4,2.9873065E2,1.2049764E0,2.7484912E2,7.2346177E0,3.5579495E0,3.3226047E2,6.060735E2,